iARPA

\data\
ngram 1=	4778
ngram 2=	27576
ngram 3=	71523

\1-grams:
-4.656439	Gregory -0.845098
-4.387594	L -0.531479
-1.118692	. -1.357773
-4.802567	Fenves -0.477121
-1.236790	is -1.400395
-4.598447	appointed -0.653213
-3.401167	president -0.945099
-2.447691	on -1.082363
-1.265504	the -1.286841
-3.173158	ALMAMATER -1.129387
-2.637026	who -1.058534
-2.401167	ASTRONAUT -1.435034
-2.516111	( -0.699690
-2.485758	born -1.419432
-1.418035	in -1.464166
-2.542973	BIRTHPLACE -1.364482
-2.519719	) -1.118152
-3.582459	attended -0.893947
-2.385262	as -0.984483
-1.856606	a -1.158857
-3.802567	student -0.770852
-4.656439	On -0.342423
-2.970058	that -0.787911
-4.355409	time -0.455932
-1.402617	, -1.207605
-3.222784	University -0.964608
-1.459750	of -1.188858
-3.060628	Texas -1.112488
-2.928666	affiliated -1.974281
-2.401856	to -1.010412
-3.709145	system -0.987411
-1.541542	and -1.151024
-3.957469	compete -1.091080
-3.702197	COMPETE_IN -0.942008
-1.701164	The -1.104292
-4.325446	Hook -0.903090
-4.802567	` -0.301030
-4.325446	em -0.579784
-4.325446	mascot -0.522879
-3.211503	Austin -1.093834
-2.052367	LOCATION -1.608586
-3.079933	whose -0.692439
-3.185567	currency -1.295067
-3.514765	Turkish -1.066947
-4.271088	Lira -0.623249
-3.124960	led -1.392697
-2.006687	by -1.189293
-3.165077	LEADER -1.245892
-2.122776	from -1.376055
-2.561021	capital -1.717964
-2.671590	CAPITAL -1.482128
-2.928666	MONUMENT -1.273277
-5.200507	Jufus -0.301030
-4.598447	Kalla -0.380211
-2.206410	leader -1.723412
-1.808602	COUNTRY -1.813087
-2.207291	where -1.092571
-2.560026	dish -1.101747
-4.387594	batagor -0.397940
-2.826676	can -1.458860
-2.809572	be -1.226309
-2.553124	found -1.562055
-3.878288	Siomay -0.645095
-2.071301	which -1.320992
-3.147429	contains -0.649485
-3.921754	peanut -1.579784
-3.232024	sauce -0.939935
-3.179318	DISHVARIATION -1.058805
-2.188303	are -1.012971
-4.355409	similar -0.628389
-4.460144	dishes -0.385351
-3.501537	this -0.565337
-3.209281	area -1.204120
-3.361658	One -1.210110
-2.537749	ethnic -1.823754
-2.898393	groups -1.302063
-4.297417	Brazilians -0.676694
-2.545369	country -1.428135
-3.169099	lead -1.564271
-4.547295	Taro -0.954243
-4.547295	Aso -0.564271
-2.281168	BUILDING -1.588017
-2.094997	located -1.821900
-2.543930	at -0.972614
-3.656439	Akita -0.897627
-2.610558	ISPARTOF -1.458638
-3.015816	US -0.945494
-3.119520	home -1.612784
-3.286693	Native -1.526339
-3.284053	Americans -1.104292
-4.039139	origin -1.014240
-3.983023	place -0.698970
-2.268541	WRITTENWORK -1.572427
-3.910473	AIRCRAFTFIGHTER -0.648803
-2.378012	an -1.245513
-3.374432	aircraft -0.815688
-3.319694	fighter -1.018596
-3.076655	U -2.125481
-2.773996	S -1.562689
-3.820296	Air -0.946125
-4.070173	Force -0.556303
-2.849291	INGREDIENT -1.293731
-2.768340	ingredient -1.292714
-2.154989	FOOD -1.624397
-2.719065	comes -2.007890
-2.509868	REGION -1.439119
-2.740361	region -1.434279
-3.730685	come -1.770852
-4.139809	Francois -1.361728
-4.039139	Hollande -0.753328
-2.227842	LEADERNAME -1.775656
-3.007383	leaders -1.365755
-3.888753	20 -0.827000
-5.024416	Fenchurch -0.477121
-3.093297	St -1.516866
-1.889920	was -1.431978
-4.070173	started -0.792392
-4.179318	Jan -0.698970
-4.121326	2009 -0.937852
-3.051288	completed -1.757396
-3.802567	April -0.903090
-5.024416	20014 -0.477121
-2.527948	It -1.509650
-2.070334	has -1.212974
-3.124960	FLOORCOUNT -1.542292
-3.181391	floors -1.230449
-4.422356	62145 -1.079181
-3.484504	3 -1.015512
-3.314016	square -1.138303
-3.314016	meters -1.173451
-3.328351	LEADERTITLE -1.063387
-3.695357	Ahmet -1.511883
-3.702197	Davutoglu -1.217484
-3.730685	Ataturk -1.308209
-3.408115	monument -0.893947
-3.745662	Izmir -0.753328
-2.460539	runway -1.498311
-2.695357	length -1.612121
-2.325156	AIRPORT -1.607173
-4.422356	992 -1.079181
-4.010175	88 -0.676694
-3.076655	or -0.733732
-4.086564	Admin -1.414973
-4.086564	Sci -1.414973
-4.086564	Q -0.860338
-3.510311	under -1.071063
-3.562018	ACADEMICDISCIPLINE -0.982271
-4.422356	LLCN -1.079181
-2.647231	number -1.505740
-3.349249	LCCN_NUMBER -1.270096
-3.472153	author -1.346353
-2.908251	AUTHOR -1.221153
-2.483253	city -1.442761
-3.716207	Aarhus -0.723104
-3.848325	governed -1.361728
-5.200507	Magistrates -0.301030
-4.598447	Antioch -0.439333
-3.615046	California -0.835447
-4.460144	UTC -1.041393
-4.422356	offset -0.574031
-4.501537	UTCOFFSET -1.000000
-3.745662	sequel -1.086360
-3.352318	PRECEDEDBY -1.102662
-3.702197	memorial -0.687975
-5.024416	depicting -0.477121
-4.179318	14th -1.322219
-3.101863	New -1.564835
-3.620724	Jersey -0.713210
-4.222784	Volunteer -1.000000
-3.669028	Infantry -1.024134
-3.480348	founded -1.019305
-3.185567	July -1.073429
-3.656439	11th -1.170262
-3.848325	1907 -0.770033
-3.557054	building -0.746552
-4.802567	320 -0.698970
-3.793967	South -0.860338
-4.802567	Boston -0.477121
-4.246265	Street -0.535113
-4.598447	formerly -0.439333
-3.027321	called -0.745795
-4.656439	FORMERNAME -0.397940
-4.222784	121 -0.662758
-4.460144	92 -0.778151
-2.786370	metres -1.645095
-3.059057	COMPLETIONDATE -1.170262
-2.572629	part -2.153307
-3.811341	community -0.801632
-4.159114	Bhaji -0.903090
-5.024416	baajji -0.477121
-3.656439	alternative -1.096910
-4.010175	names -0.676694
-2.555576	for -0.934673
-2.785534	main -1.580599
-2.762757	ingredients -1.298024
-4.070173	gram -1.431364
-3.970058	flour -1.079181
-3.464111	vegetables -1.113943
-3.209281	In -0.751499
-3.010175	WAS_SELECTED_BY_NASA -1.159410
-3.387594	selected -1.233631
-3.136049	OPERATOR -1.079181
-2.856115	member -1.613746
-2.788887	WAS_A_CREW_MEMBER_OF -1.152445
-2.889814	crew -1.207125
-4.271088	alongside -0.477121
-3.777261	CREWMEMBERS -0.698970
-5.024416	amongst -0.301030
-5.024416	others -0.477121
-2.618444	He -1.227780
-3.933335	had -0.511883
-3.888753	previously -0.564271
-5.200507	trained -0.301030
-2.840672	pilot -1.301934
-5.200507	partnered -0.301030
-3.745662	mission -0.596308
-3.572118	backup -1.633468
-3.632305	BACKUP_PILOT -0.919078
-4.297417	Alvinegro -0.602060
-3.838779	nickname -0.778151
-2.538222	SPORTSTEAM -1.295230
-2.972620	designed -1.318554
-3.115931	architect -1.097736
-3.057492	ARCHITECT -1.214550
-4.159114	postcode -0.602060
-2.376707	' -1.358621
-3.331275	B -1.060698
-2.879323	established -1.591065
-3.418752	Adams -1.491362
-2.727020	County -1.180208
-3.899477	south -0.817660
-3.644205	Cumberland -1.562293
-3.910473	east -1.021189
-3.888753	Franklin -1.322219
-4.723386	Carroll -0.778151
-3.577258	Maryland -0.931735
-3.785534	lies -0.621955
-3.996387	Frederick -0.734686
-3.858084	southwest -0.724276
-3.811341	Mississippi -1.690196
-2.854154	ESTABLISHED -1.484774
-3.638214	AS -1.187521
-3.415177	Roma -0.796635
-3.147429	play -1.371068
-3.101863	LEAGUE -1.057539
-3.088237	have -1.023481
-3.820296	Juventus -1.221849
-2.963718	FC -1.057827
-3.878288	previous -0.744727
-3.337184	champions -1.151732
-2.461727	s -0.811240
-2.786370	ground -1.451221
-2.763550	GROUND -1.197467
-3.278821	they -1.055951
-2.890877	NUMBEROFMEMBERS -1.664851
-2.872128	members -1.391131
-3.334220	abbreviated -1.087454
-3.260988	ABBREVIATION -1.048305
-3.384266	LCCN -1.291623
-4.460144	HAS_TO_ITS_NORTH -0.544068
-3.716207	Carrol -1.491362
-3.681993	southeast -1.012234
-4.271088	HAS_TO_ITS_SOUTHWEST -0.698970
-3.609443	categorised -1.892095
-3.615046	contributing -1.886491
-3.609443	property -1.026329
-3.098417	there -1.199303
-2.767538	group -1.279515
-2.740361	ETHNICGROUP -1.434279
-3.098417	Washington -1.378563
-3.492937	DC -1.251233
-4.222784	Colombian -1.278754
-3.444632	MAININGREDIENTS -1.179695
-3.020095	originates -2.007179
-3.868069	Paisa -0.973128
-4.387594	Virginia -0.602060
-4.121326	DeMarce -0.684247
-4.200507	short -0.759668
-4.297417	stories -0.778151
-3.888753	Grantville -1.322219
-4.222784	Gazettes -0.511883
-3.337184	preceded -1.233278
-4.899477	co -0.397940
-2.845439	- -0.771811
-4.139809	authored -0.920819
-2.470129	with -0.940846
-4.387594	Eric -1.113943
-4.355409	Flint -0.556303
-3.346201	1634 -1.328088
-3.567039	Ram -1.638489
-3.577258	Rebellion -0.898542
-2.838779	written -1.528733
-2.793967	English -1.346516
-4.010175	paperback -0.676694
-2.578812	UNIVERSITY -1.446657
-4.297417	Swiss -0.544068
-2.586137	CITY -1.497544
-3.220504	their -0.733887
-3.227379	national -0.885280
-3.785534	anthem -0.977724
-4.010175	ANTHEM -0.845098
-4.054379	Andrews -0.686381
-2.707049	airport -1.285425
-2.904940	RUNWAYLENGTH -1.495651
-4.086564	Javanese -0.660052
-3.620724	Indonesian -0.803262
-2.730685	language -1.358217
-2.652732	spoken -1.559308
-3.945235	Two -0.689210
-4.422356	Joko -0.812913
-4.387594	Widodo -0.602060
-3.297417	NUMBEROFPAGES -1.515874
-3.331275	pages -1.238882
-3.497216	available -1.535716
-3.464111	hardcover -1.000000
-3.644205	ICAO -1.046997
-3.945235	Location -1.102662
-3.933335	Identifier -0.913814
-3.582459	ICAO_LOCATION_IDENTIFIER -1.051153
-3.562018	official -0.912045
-3.562018	title -0.853872
-4.802567	Turkeys -0.698970
-3.411632	largest -1.498311
-3.452319	LARGESTCITY -1.082785
-3.343175	used -1.146128
-3.562018	Monument -0.853872
-3.688624	DESIGNER -0.954243
-3.021530	made -1.492760
-4.598447	MATERIAL -0.439333
-3.777261	higher -1.056905
-5.024416	rank -0.477121
-3.970058	HIGHER -0.966142
-4.460144	got -0.477121
-2.729215	one -1.579069
-3.650279	Distinguished -1.556303
-3.609443	Service -1.425969
-3.638214	Medal -0.845098
-3.149355	United -1.413113
-3.256024	States -1.009048
-3.615046	Navy -0.865301
-2.970058	American -0.883494
-3.709145	went -1.210853
-3.702197	school -0.790050
-3.537749	NWC -1.208620
-3.037644	graduated -1.571126
-3.910473	MA -1.021189
-3.528409	1957 -0.975641
-3.418752	NATIONALITY -0.954243
-3.593052	awarded -0.995147
-3.802567	than -1.122216
-4.070173	department -0.985277
-4.422356	commerce -1.079181
-4.325446	gold -1.176091
-4.054379	medal -0.740363
-3.039139	died -1.519974
-4.271088	DEATHDATE -0.954243
-3.141702	DEATHPLACE -1.158717
-3.811341	15th -0.895265
-3.681993	March -1.073107
-3.340169	1932 -1.278754
-3.112371	test -2.089905
-3.730685	COMMANDER -0.871832
-4.246265	commanded -0.977724
-3.567039	Alan -0.823909
-4.723386	bean -0.544068
-3.340169	now -0.801632
-3.062204	retired -1.147603
-3.542496	Soldevanahalli -1.959041
-3.468113	Acharya -1.274927
-3.437079	Dr -1.767156
-3.547295	Sarvapalli -1.658011
-3.542496	Radhakrishnan -1.959041
-3.234365	Road -1.968483
-3.537749	Hessarghatta -1.963788
-3.537749	Main -1.963788
-3.675462	– -1.079181
-3.542496	560090 -1.278754
-2.863048	location -1.505150
-3.181391	state -1.077272
-5.024416	Karataka -0.477121
-3.273650	President -1.113943
-3.557054	Institute -0.986772
-3.793967	year -0.778151
-3.334220	M -1.480007
-4.271088	Reddy -0.564271
-3.656439	NUMBEROFPOSTGRADUATESTUDENTS -1.096910
-3.785534	postgraduate -1.716003
-3.096703	students -1.177697
-3.888753	religion -0.827000
-3.899477	Church -1.311754
-3.567039	dedicated -1.934498
-4.024416	DEDICATEDTO -1.028029
-2.678715	its -0.772213
-3.638214	dean -1.113943
-3.484504	DEAN -1.094976
-4.010175	neighbouring -1.041393
-3.695357	municipality -0.948168
-4.070173	NEIGHBORINGMUNICIPALITY -0.792392
-3.241466	: -0.533179
-4.547295	Th -0.414973
-3.921754	Bavarian -1.290035
-3.945235	Crisis -0.544068
-4.422356	page -0.574031
-3.185567	ISBN -1.295067
-3.196186	ISBN_NUMBER -1.417056
-4.039139	former -0.549672
-3.632305	headquarters -1.057992
-5.024416	Olimpico -0.477121
-4.723386	stadium -0.352183
-3.838779	Bacon -0.821186
-4.200507	Sandwich -0.619789
-2.714786	it -1.172789
-2.653348	also -0.879637
-3.012986	known -1.545445
-2.778081	bacon -1.505948
-3.868069	butty -1.342423
-3.858084	sarnie -1.352183
-3.878288	rasher -1.332438
-3.155184	sandwich -1.080987
-3.878288	sanger -1.623249
-3.878288	piece -1.332438
-3.669028	n -0.789147
-3.868069	cob -1.342423
-3.868069	barm -1.342423
-3.868069	muffin -1.060698
-3.769143	won -1.064458
-4.547295	Defense -0.954243
-4.325446	ribbon -1.176091
-2.805181	CITYSERVED -1.335792
-2.863048	serves -1.298188
-2.707747	A -0.928495
-3.390947	T -1.230449
-3.769143	Charlie -1.732394
-3.688624	Johnson -0.801632
-3.802567	editor -1.122216
-4.802567	resides -0.698970
-4.460144	RESIDENCE -0.544068
-3.027321	ELEVATIONABOVETHESEALEVEL_(IN_METRES) -1.487138
-2.790574	above -2.015360
-2.779727	sea -2.246334
-2.780551	level -1.650793
-3.448459	include -0.522879
-3.848325	African -0.991226
-4.547295	However -0.564271
-3.134181	SPOKENIN -1.275223
-4.422356	Dallas -0.452298
-4.723386	Collin -0.778151
-4.103597	Agra -0.954243
-3.777261	Thakur -0.985277
-2.836895	operated -1.717855
-4.103597	Indian -0.564271
-4.086564	air -0.970037
-4.387594	force -0.397940
-4.070173	deploy -1.431364
-3.716207	transport -1.041393
-3.745662	TRANSPORTAIRCRAFT -0.858671
-3.241466	were -0.716780
-3.669028	constructed -1.158362
-3.552147	YEAROFCONSTRUCTION -0.991226
-3.769143	architectural -1.064458
-3.562018	style -0.804480
-4.355409	Romanesque -1.146128
-4.070173	Revival -0.726999
-3.528409	added -1.292256
-3.286693	National -1.024824
-3.514765	Register -1.690196
-3.480348	Historic -1.431364
-3.519266	Places -0.983913
-4.200507	ADDED_TO_THE_NATIONAL_REGISTER_OF_HISTORIC_PLACES -0.528274
-3.868069	given -0.973128
-3.802567	reference -1.406540
-3.702197	REFERENCENUMBER_IN_THE_NATIONAL_REGISTER_OF_HISTORIC_PLACES -1.054358
-3.492937	HEADQUARTER -1.087150
-4.039139	Port -1.176091
-3.572118	Authority -0.903090
-3.562018	York -0.945379
-3.709145	operates -0.784142
-5.024416	airportis -0.477121
-3.730685	Egg -1.770852
-3.730685	Harbor -1.308209
-3.497216	Township -1.041393
-3.983023	BIRTHDATE -0.869232
-3.027321	COMICSCHARACTER -1.037426
-2.920612	created -1.550784
-4.297417	Steven -0.929419
-4.139809	Seagle -0.812913
-3.933335	Duncan -1.278754
-3.945235	Rouleau -0.834633
-3.921754	Gujarat -0.672098
-4.899477	Legislative -0.602060
-3.702197	Assembly -0.790050
-4.547295	stands -0.564271
-3.024416	STATE -1.202761
-4.054379	ajoblanco -0.740363
-3.528409	Felipe -1.676694
-3.533054	VI -1.096910
-3.702197	Greenville -1.054358
-3.492937	Appleton -0.973897
-3.191907	International -1.289021
-4.086564	serving -0.778151
-3.593052	Wisconsin -0.954243
-4.054379	Ellington -0.740363
-4.179318	Manual -1.322219
-3.910473	Valls -0.759668
-2.824844	served -1.300161
-3.632305	speak -0.723794
-3.730685	Chinese -0.711204
-3.753349	Bolt -0.812913
-3.096703	comic -1.712650
-2.971337	character -1.005830
-4.355409	otherwise -0.875061
-4.355409	know -0.628389
-3.314016	ALTERNATIVENAME -1.173451
-3.899477	Paris -0.875061
-4.070173	Cullins -0.726999
-4.010175	Ernie -1.041393
-4.086564	Colon -0.660052
-4.246265	Puerto -0.977724
-4.723386	Rico -0.425969
-4.422356	Japan -0.574031
-2.970058	PUBLISHER -1.196981
-3.695357	publisher -1.511883
-2.916076	LANGUAGE -1.424882
-4.355409	Massimo -0.875061
-4.387594	Drago -0.531479
-2.921754	club -0.982888
-2.940436	CLUB -1.224859
-3.171123	food -0.978637
-3.062204	dessert -0.904480
-4.222784	varied -0.845098
-4.070173	using -0.526809
-4.159114	cottage -1.342423
-3.910473	cheese -1.021189
-3.587723	elevation -1.327359
-4.355409	ELEVATIONABOVETHESEALEVEL_(IN_FEET) -0.628389
-3.702197	feet -0.897016
-4.656439	Admisham -0.845098
-3.650279	Hall -0.753328
-4.547295	Attica -0.414973
-4.039139	run -1.462398
-4.460144	operation -0.778151
-3.464111	organisation -1.071882
-2.793967	OPERATINGORGANISATION -1.282816
-3.215980	Its -0.678036
-3.811341	bread -0.895265
-3.769143	almonds -1.064458
-3.669028	garlic -1.085172
-3.838779	water -0.676694
-3.716207	olive -1.785330
-3.615046	oil -1.135663
-4.422356	Union -0.812913
-3.957469	Madison -1.544068
-3.695357	Located -1.060698
-4.422356	Olympic -1.079181
-4.355409	Stadium -0.556303
-3.820296	AEK -1.221849
-3.012986	manager -1.424609
-2.936871	MANAGER -1.329059
-4.723386	Real -0.544068
-5.024416	Zaragoza -0.477121
-3.030245	played -1.444329
-4.387594	Chelsea -0.845098
-3.408115	F -1.795880
-2.973907	C -1.193367
-4.598447	affiliation -0.522879
-3.005993	AFFILIATION -1.286747
-3.858084	Technical -1.185637
-3.858084	Campus -0.982271
-3.878288	status -1.051153
-3.888753	WAS_GIVEN_THE_'TECHNICAL_CAMPUS'_STATUS_BY -0.827000
-3.878288	HAS_TO_ITS_WEST -0.893947
-3.945235	Pietro -1.267172
-3.933335	Grasso -0.913814
-4.656439	amatriciana -0.845098
-3.387594	traditional -1.104735
-4.054379	architecture -0.806180
-2.516560	" -0.949870
-4.325446	Arts -1.176091
-4.325446	Crafts -1.176091
-4.325446	Movement -0.653213
-4.547295	Craftsman -0.954243
-4.547295	Bungalows -0.698970
-4.139809	Awadh -0.812913
-3.675462	inaugurated -1.243038
-3.957469	27th -0.892095
-4.899477	covering -0.397940
-4.325446	111484 -0.903090
-3.582459	sweet -1.452298
-3.921754	potatoes -0.708515
-3.236719	includes -0.655065
-3.945235	sago -0.778151
-3.593052	January -0.827000
-4.086564	20th -0.860338
-3.644205	1930 -1.046997
-4.723386	Now -0.544068
-3.173158	he -0.838149
-3.957469	hired -1.255273
-3.100137	NASA -1.131939
-3.996387	ketchup -0.734686
-4.271088	often -0.516630
-3.933335	town -0.845098
-3.433351	They -0.851580
-3.460144	2014 -1.037789
-3.440839	15 -0.961082
-4.656439	EPSTH -0.397940
-3.793967	Greece -0.660052
-4.355409	Asherton -0.628389
-3.996387	DATEOFRETIREMENT -0.790050
-3.334220	league -0.850238
-4.899477	Robur -0.602060
-4.899477	Siena -0.602060
-3.910473	grounds -0.808114
-3.593052	currently -0.586266
-4.656439	Completed -0.845098
-4.899477	Preceded -0.602060
-4.121326	Gazette -0.937852
-4.297417	III -0.602060
-4.271088	Olympiacos -0.954243
-4.121326	Superleague -0.632023
-3.838779	influenced -1.662758
-3.777261	Robert -1.431364
-4.139809	Heinlein -0.920819
-4.723386	Has -0.352183
-4.598447	3990 -0.439333
-3.802567	Lars -1.406540
-3.838779	Lokke -1.204120
-3.820296	Rasmussen -1.017033
-3.878288	Denmark -0.787106
-3.669028	Barny -1.832509
-3.598447	cakes -0.879860
-4.547295	AKA -0.564271
-4.656439	ALTERNATIVENAMES -0.477121
-3.888753	1963 -0.827000
-4.086564	Massachusetts -1.414973
-3.868069	Technology -0.682883
-3.921754	Sc -1.290035
-3.134181	D -1.427775
-3.510311	floor -1.171935
-4.723386	1200 -0.778151
-2.802567	published -1.458218
-3.371203	OCLC -1.444045
-3.397733	OCLC_NUMBER -1.342423
-3.921754	Akron -0.708515
-4.139809	Ohio -0.574031
-3.572118	Abilene -0.903090
-4.899477	Wizards -0.602060
-4.159114	War -0.653213
-4.460144	Harcourt -0.636822
-3.401167	operating -1.630089
-3.387594	Al -1.352183
-3.572118	Asad -1.250420
-3.542496	airbase -0.929419
-3.945235	involved -1.102662
-4.387594	battle -0.531479
-4.070173	invasion -1.431364
-4.086564	Panama -0.778151
-4.179318	use -0.544068
-3.811341	ATTACKAIRCRAFT -0.623249
-4.139809	carriers -0.617300
-4.024416	Parana -0.711204
-4.246265	classed -0.823909
-3.785534	jam -1.255273
-3.811341	butter -1.397940
-3.811341	eggs -1.113943
-3.057492	plays -1.551755
-3.422356	Italian -0.926214
-3.730685	football -0.871832
-3.829439	team -0.656909
-3.510311	manages -0.899195
-4.297417	Asser -1.204120
-4.297417	Levy -0.929419
-4.501537	Place -0.511883
-4.054379	East -0.889302
-3.669028	23rd -1.024134
-3.983023	NICKNAME -0.745967
-3.983023	18th -0.954243
-3.738109	November -1.021189
-3.662688	1923 -1.029963
-3.380963	first -1.076155
-4.054379	FIRSTPUBLICATIONYEAR -0.740363
-3.484504	belongs -2.017033
-3.121326	academic -1.611015
-3.460144	discipline -1.075547
-4.200507	HIV -0.528274
-3.514765	journal -0.801632
-3.175201	ISSN -1.493358
-3.173158	ISSN_NUMBER -1.346353
-3.983023	Association -0.954243
-4.598447	Computing -0.522879
-5.024416	machinery -0.477121
-3.793967	Huseyin -1.707570
-3.793967	Butuner -1.707570
-3.793967	Hilmi -1.707570
-3.793967	Guner -0.816610
-3.848325	Baku -0.991226
-3.838779	Martyrs -1.204120
-4.070173	citizen -0.628389
-4.460144	PART -0.544068
-4.086564	will -0.778151
-5.024416	competitor -0.477121
-4.271088	Cornell -0.801632
-3.429655	based -0.944483
-2.989654	book -1.046300
-3.433351	followed -1.142668
-3.437079	FOLLOWEDBY -0.964462
-3.681993	abbreviation -0.914989
-4.159114	Am -1.342423
-3.785534	J -1.138303
-3.675462	Math -0.966142
-3.523814	his -0.549070
-4.802567	bimonthly -0.367977
-3.311205	NUMBEROFSTUDENTS -1.718778
-3.557054	Federal -1.648360
-3.662688	Chancellor -0.932248
-4.355409	Johann -0.726999
-4.355409	Schneider -0.875061
-5.024416	Amman -0.477121
-4.387594	2nd -0.698970
-4.039139	2ND_RUNWAY_SURFACETYPE -0.753328
-3.983023	CLASS -0.698970
-4.086564	player -0.660052
-3.702197	well -0.857332
-4.121326	Livorno -0.829304
-3.609443	Calcio -0.685742
-3.650279	identifier -0.943385
-3.510311	named -0.927449
-2.945235	RUNWAYNAME -1.396780
-4.460144	Shephard -0.636822
-3.593052	became -1.322219
-3.620724	1927 -1.068716
-4.070173	competing -1.146128
-3.738109	nationwide -0.961082
-3.785534	Malaysia -1.138303
-3.761174	Singapore -1.071882
-4.039139	squeezed -1.176091
-3.970058	smashed -1.079181
-3.377685	chicken -1.194977
-3.933335	sambal -0.788370
-4.159114	latin -1.060698
-2.719065	name -1.274022
-3.858084	LATINNAME -0.804480
-4.547295	Print -0.954243
-3.802567	& -0.678448
-4.547295	Paperback -0.477121
-3.519266	PARENTCOMPANY -0.950203
-3.609443	parent -1.596597
-3.464111	company -0.889302
-3.638214	Ardmore -1.568202
-3.227379	Airport -0.944071
-4.899477	Zeland -0.397940
-4.355409	Ranil -0.875061
-4.387594	Wickremesinghe -0.698970
-3.695357	Eastern -1.511883
-3.626476	Province -0.924279
-3.888753	aired -0.954243
-3.448459	BROADCASTEDBY -0.784682
-3.492937	October -1.188326
-3.593052	3rd -1.322219
-3.785534	1983 -0.977724
-3.709145	broadcast -0.987411
-4.246265	last -0.720159
-4.460144	episode -1.041393
-3.945235	1986 -0.989005
-2.940436	CREATOR -1.374519
-3.753349	stars -0.896251
-3.352318	STARRING -1.102662
-4.222784	deceased -0.602060
-4.422356	sandesh -0.574031
-3.957469	native -0.643453
-3.650279	Zealand -0.903090
-4.024416	34 -1.028029
-3.838779	poaceae -0.821186
-3.314016	1st -1.076588
-3.970058	August -0.812913
-3.626476	1969 -1.409369
-4.054379	Gubbio -0.740363
-4.024416	produced -1.477121
-3.422356	print -0.926214
-3.175201	ACADEMICSTAFFSIZE -1.304960
-3.196186	staff -1.324282
-4.054379	Mahe -0.806180
-3.970058	northwest -0.880814
-3.220504	variation -1.261803
-3.271088	both -0.508352
-3.239086	popular -1.146128
-5.024416	uk -0.477121
-4.121326	tomato -0.550907
-4.024416	911 -1.028029
-4.271088	states -0.477121
-3.437079	white -1.058978
-4.899477	americans -0.602060
-3.675462	AIDS -1.361728
-4.024416	Lippincott -1.190332
-3.983023	Williams -0.954243
-4.039139	Wilkins -0.653213
-4.422356	K -0.669007
-4.121326	nationality -0.748188
-3.615046	John -0.835447
-4.355409	Buscema -0.500602
-4.086564	chopped -0.970037
-4.121326	fruits -1.380211
-3.753349	sour -1.286307
-3.681993	cream -0.914989
-3.910473	condensed -1.591065
-3.669028	milk -0.971971
-3.888753	granola -0.954243
-4.024416	shredded -1.477121
-3.738109	coconut -1.183270
-3.858084	raisins -0.912045
-5.024416	Guadalajra -0.477121
-4.024416	Frank -1.028029
-3.688624	G -1.066947
-4.159114	Jackson -0.716003
-3.669028	Magdeburg -0.971971
-3.777261	attached -1.724276
-4.246265	Berliner -0.977724
-4.271088	AK -1.230449
-4.159114	07 -0.653213
-4.325446	SV -0.903090
-4.460144	Babelsberg -1.041393
-4.159114	03 -0.903090
-4.460144	Cookies -0.636822
-4.387594	types -1.113943
-4.200507	latter -0.492916
-3.878288	Gerard -1.623249
-3.829439	Larcher -0.879178
-4.422356	concerts -1.079181
-4.355409	events -0.500602
-4.723386	venue -0.544068
-3.603910	type -0.944483
-3.811341	county -0.564271
-3.681993	Pennsylvania -0.751499
-3.709145	north -0.815940
-4.656439	boasts -0.602060
-3.753349	HEADQUARTERS -1.286307
-4.325446	magistrate -0.653213
-3.829439	government -0.684247
-3.429655	OWNER -0.919732
-3.858084	owner -1.352183
-4.723386	completion -0.778151
-3.996387	date -0.790050
-3.669028	BUILDINGSTARTDATE -1.024134
-3.702197	23 -0.942008
-5.200507	die -0.301030
-3.681993	February -0.960233
-3.802567	28 -0.962211
-3.738109	1966 -1.021189
-3.644205	Louis -0.839897
-4.297417	AZ -0.778151
-4.387594	Alkmaair -0.602060
-4.103597	Southeast -0.845098
-3.811341	Asian -0.845098
-3.888753	countries -0.954243
-4.460144	nicknamed -0.477121
-4.460144	Asa -1.041393
-4.460144	Gigante -0.544068
-3.311205	SEASON -1.361728
-3.957469	genus -0.679226
-4.024416	GENUS -0.665112
-3.537749	family -0.967207
-4.501537	solanaceae -0.447158
-4.010175	4 -0.845098
-4.899477	019 -0.397940
-4.246265	picked -0.823909
-3.552147	space -0.770033
-4.159114	program -0.602060
-3.878288	EDITOR -0.707570
-3.236719	season -1.329059
-3.829439	Blockbuster -0.829304
-4.802567	Carmine -0.477121
-4.899477	Infantino -0.397940
-3.681993	There -1.236789
-5.024416	good -0.477121
-3.829439	An -0.829304
-3.945235	explosion -0.653213
-3.662688	sausage -0.823909
-3.996387	hails -0.942008
-3.811341	speaking -0.646264
-3.514765	; -0.509546
-4.039139	Cuyahoga -1.176091
-4.103597	Latin -1.113943
-4.802567	1600 -0.477121
-3.996387	originally -0.942008
-3.802567	joined -1.238882
-4.723386	flew -0.778151
-3.802567	Peter -1.238882
-3.888753	Stoger -0.735954
-3.322560	full -1.491362
-3.266009	FULLNAME -1.093422
-4.159114	writer -0.716003
-4.054379	Roger -1.000000
-4.802567	Mckenzie -0.367977
-4.222784	TITLE -0.740363
-4.054379	Club -0.740363
-4.547295	Cesana -0.564271
-3.626476	CHAMPIONS -0.924279
-4.159114	Campeonato -1.342423
-4.159114	Brasileiro -1.060698
-3.769143	Serie -1.153815
-3.587723	managed -1.000000
-4.387594	Nov -0.845098
-3.820296	18 -0.837273
-3.910473	1974 -0.865301
-4.297417	10 -0.778151
-3.533054	/ -0.550907
-3.587723	starred -1.235528
-4.246265	inhabited -0.977724
-3.263491	DEMONYM -1.185637
-3.910473	Auron -0.759668
-4.222784	Karl -1.278754
-4.200507	Kesel -0.619789
-3.996387	sandwiches -0.790050
-3.460144	UK -0.828456
-4.547295	Variations -0.698970
-4.039139	brown -1.462398
-4.200507	condiment -0.865301
-3.838779	key -0.870905
-4.159114	like -0.380211
-3.933335	Sandesh -0.845098
-3.669028	novel -0.655745
-3.945235	State -0.567298
-3.286693	order -1.131569
-3.367998	ORDER -1.027058
-3.669028	FAMILY -1.158362
-3.848325	division -1.079181
-3.603910	flowering -1.602060
-3.730685	plants -0.871832
-4.723386	star -0.425969
-4.325446	broadcasted -0.903090
-4.547295	out -0.564271
-4.899477	broadcasting -0.602060
-4.656439	house -0.477121
-4.297417	London -0.676694
-3.983023	Jorge -1.230449
-4.070173	Humberto -0.792392
-4.179318	Rodriguez -0.544068
-4.460144	AD -1.041393
-3.761174	Isidro -1.447158
-3.769143	Metapan -0.799341
-4.802567	connected -0.698970
-5.024416	Allianza -0.477121
-4.179318	playing -0.884607
-3.562018	languages -0.982271
-4.297417	Also -0.497325
-3.996387	two -0.687975
-4.246265	llocano -0.823909
-3.179318	people -0.956095
-4.024416	variations -0.591065
-3.587723	USA -0.959041
-4.656439	Kimberly -0.301030
-4.121326	Wheeler -0.937852
-3.702197	UT -1.127105
-3.598447	1955 -0.990240
-4.179318	Bachelor -1.322219
-3.802567	Science -0.852785
-4.070173	degree -0.792392
-3.675462	along -1.361728
-3.945235	commander -0.834633
-3.996387	commonly -0.857332
-3.753349	arem -0.718566
-4.501537	Marv -0.602060
-4.598447	Wolfman -0.522879
-4.024416	AWARD -0.832509
-4.222784	birthplace -0.845098
-3.695357	population -0.948168
-3.397733	CURRENCY -1.342423
-4.723386	Barney -0.778151
-4.010175	FOUNDATIONPLACE -0.676694
-3.820296	CURRENTTENANTS -0.793946
-3.523814	tenant -1.105510
-3.838779	Miller -1.371068
-4.802567	Owned -0.698970
-3.761174	College -1.071882
-3.745662	William -0.903090
-3.422356	Mary -0.977724
-4.422356	chancellor -0.812913
-4.355409	CHANCELLOR -0.500602
-4.387594	tenanted -1.113943
-4.899477	Mason -0.602060
-3.390947	School -1.101622
-5.024416	business -0.477121
-3.933335	8 -0.788370
-5.200507	0km -0.301030
-3.281429	long -1.286307
-3.638214	situated -0.788370
-4.222784	973 -0.740363
-4.656439	Est -0.845098
-3.811341	á -0.954243
-4.656439	dio -0.845098
-4.460144	Municipal -1.041393
-4.179318	Coaracy -1.322219
-4.179318	da -1.322219
-4.179318	Mata -1.041393
-4.200507	Fonseca -0.569875
-4.325446	AFFILIATIONS -0.903090
-3.945235	Business -0.989005
-4.010175	Social -1.204120
-3.970058	Sciences -0.812913
-5.200507	theCITY -0.301030
-3.921754	16 -1.010724
-3.933335	000 -0.913814
-4.422356	Written -0.669007
-4.139809	Published -0.920819
-4.723386	fourth -0.778151
-3.957469	asphalt -0.767686
-3.848325	cake -0.669007
-4.222784	REGIONSERVED -0.511883
-3.367998	been -0.778151
-4.598447	R -0.903090
-4.501537	Anderlecht -0.511883
-5.200507	anders -0.301030
-3.745662	spent -0.784682
-4.547295	8820 -0.698970
-3.603910	minutes -1.031408
-3.777261	Sao -1.724276
-3.769143	Jose -1.064458
-3.785534	dos -1.423246
-3.769143	Pinhais -0.733732
-4.246265	award -0.460731
-3.537749	Madrid -1.045757
-4.054379	3500 -0.640978
-5.024416	sequeled -0.477121
-4.039139	Maiden -1.462398
-3.868069	Castle -0.716003
-4.460144	By -0.544068
-3.675462	DISTRICT -0.920819
-4.422356	provided -1.079181
-4.070173	OWNINGORGANISATION -0.792392
-3.996387	11 -0.687975
-4.139809	Edwin -1.079181
-3.933335	E -0.913814
-3.681993	Aldrin -0.704365
-3.983023	Jr -0.745967
-4.802567	Australia -0.477121
-3.785534	Malaysian -0.867762
-4.159114	chinese -0.602060
-4.460144	Philippine -0.636822
-3.848325	pork -1.079181
-5.024416	Lincoln -0.477121
-5.024416	Nebraska -0.301030
-3.838779	wrote -0.778151
-4.422356	invented -0.505150
-4.656439	YEAR -0.477121
-4.271088	McKenzie -0.564271
-3.769143	creator -1.439333
-4.460144	Dick -0.778151
-4.547295	Dillin -0.477121
-4.501537	Romania -0.447158
-3.662688	Prime -1.544068
-3.669028	Minister -0.789147
-3.476231	TENANT -0.957939
-3.945235	Athens -0.778151
-3.702197	red -1.335792
-3.820296	granite -1.681241
-3.820296	marble -0.755875
-4.899477	Allan -0.602060
-4.271088	Bean -0.564271
-3.519266	Adolfo -1.685742
-3.593052	Suarez -1.041393
-3.577258	Barajas -1.337459
-3.868069	Buzz -0.845098
-3.899477	worked -1.146128
-4.422356	back -1.079181
-4.121326	up -0.550907
-3.745662	Punjab -0.903090
-4.271088	Department -0.801632
-4.501537	Commerce -0.602060
-4.656439	Gold -0.477121
-5.024416	Metal -0.477121
-4.802567	3048 -0.367977
-4.355409	Switzerland -0.556303
-4.325446	inhabit -0.579784
-4.501537	LEADERPARTY -0.602060
-4.547295	leading -0.698970
-4.139809	party -0.669007
-4.159114	Museum -0.653213
-4.460144	ID -0.477121
-4.039139	LOCATIONIDENTIFIER -0.819544
-4.899477	Sheldon -0.602060
-4.899477	Moldoff -0.397940
-5.024416	march -0.477121
-4.246265	3800 -0.643453
-4.656439	? -0.602060
-4.802567	kke -0.698970
-3.933335	USAF -0.511883
-4.656439	bombed -0.845098
-4.355409	Libya -0.875061
-3.921754	fought -1.010724
-4.139809	Invasion -1.079181
-4.103597	Grenada -0.763428
-4.460144	aircrafts -0.477121
-4.159114	base -0.522879
-4.460144	landmark -0.477121
-4.179318	Los -1.322219
-4.179318	Angeles -0.884607
-4.271088	Herald -0.954243
-4.723386	examiner -0.778151
-4.179318	Korean -0.884607
-4.387594	war -0.698970
-4.024416	battles -0.665112
-4.010175	attack -0.845098
-4.598447	From -0.653213
-3.615046	Arros -1.420506
-4.598447	Negre -0.522879
-4.159114	OFFICIALLANGUAGE -0.795880
-4.387594	Igorot -0.602060
-3.695357	being -0.455293
-3.868069	Germans -1.342423
-4.802567	Alba -0.367977
-5.200507	precedes -0.301030
-3.415177	AC -1.117271
-3.858084	Chievo -1.352183
-3.702197	course -0.734686
-5.024416	sausages -0.301030
-3.933335	received -0.845098
-4.547295	BSc -0.564271
-3.996387	Glen -1.505150
-3.738109	Ridge -0.865301
-4.501537	recipes -0.447158
-5.024416	typically -0.477121
-4.103597	contain -0.502675
-4.179318	Sweet -1.041393
-4.723386	belong -0.778151
-4.139809	SPORTSGOVERNINGBODY -0.732394
-4.802567	Governing -0.698970
-4.802567	Body -0.367977
-4.297417	sport -0.602060
-4.103597	tennis -0.602060
-4.024416	Amsterdam -0.591065
-4.501537	Aiport -0.602060
-4.460144	Schiphol -0.636822
-4.802567	1ST_RUNWAY_LENGTHMETRE -0.477121
-3.848325	Ottoman -1.361728
-4.159114	Army -1.060698
-4.460144	Soldiers -1.041393
-3.910473	killed -1.301030
-3.709145	Battle -0.890856
-4.070173	construction -0.726999
-3.777261	eaten -0.985277
-4.598447	Phillipines -0.439333
-4.460144	Ethnic -1.041393
-4.200507	Ilocano -0.865301
-4.598447	Little -0.903090
-3.970058	Chute -0.709694
-4.246265	Anderson -0.643453
-3.793967	Indiana -0.910777
-4.460144	several -0.385351
-3.878288	including -0.645095
-4.121326	black -0.829304
-4.387594	pepper -0.602060
-4.179318	chili -0.778151
-4.054379	Hong -1.447158
-4.054379	Kong -0.602060
-4.899477	Sponge -0.602060
-4.899477	Cake -0.397940
-4.355409	some -0.455932
-3.785534	live -1.049218
-3.899477	China -0.817660
-4.422356	Barejas -0.812913
-3.899477	France -0.769008
-4.355409	Carpi -1.146128
-4.325446	1909 -0.653213
-3.716207	rice -0.845098
-4.200507	cuttlefish -0.759668
-4.139809	squid -0.732394
-4.246265	cephalopod -1.255273
-4.246265	ink -0.977724
-4.246265	cubanelle -1.255273
-4.246265	peppers -0.977724
-4.139809	108 -1.361728
-4.159114	Georges -1.060698
-4.159114	Terrace -0.653213
-3.888753	began -0.827000
-4.103597	Born -0.954243
-4.547295	distinguished -0.698970
-4.325446	British -0.439333
-4.246265	politician -0.494850
-4.501537	Khalid -1.000000
-4.501537	Mahmood -0.511883
-5.200507	letter -0.301030
-4.070173	MEDIATYPE -0.589826
-4.222784	Gardner -1.278754
-4.200507	Fox -1.021189
-3.761174	Allama -1.278754
-3.761174	Iqbal -1.447158
-3.802567	3RD_RUNWAY_SURFACETYPE -0.770852
-4.010175	class -0.676694
-4.802567	monocotyledon -0.477121
-4.899477	commelinids -0.397940
-4.547295	Abhandlungen -0.954243
-4.547295	aus -0.954243
-4.547295	dem -0.954243
-4.547295	Mathematischen -0.954243
-4.547295	Seminar -0.954243
-4.501537	der -0.740363
-4.547295	Universitat -0.954243
-4.547295	Hamburg -0.564271
-4.723386	abbreviating -0.778151
-3.769143	CODEN -1.271067
-3.533054	code -0.907246
-3.675462	CODEN_CODE -1.018225
-4.139809	Birmingham -0.669007
-3.996387	England -0.734686
-4.271088	lives -0.954243
-4.460144	cookies -0.477121
-4.200507	desserts -0.681241
-3.811341	leads -0.671386
-3.878288	Central -1.051153
-3.996387	once -0.612784
-3.996387	series -0.647817
-4.039139	e -1.014240
-4.899477	Farrar -0.602060
-4.899477	Straus -0.602060
-4.899477	Giroux -0.397940
-4.802567	subsidiary -0.698970
-4.460144	27nd -0.778151
-4.086564	1987 -0.713210
-4.723386	120770 -0.544068
-3.709145	0 -0.755288
-5.024416	Texan -0.477121
-5.024416	tidbits -0.477121
-3.557054	Spanish -0.986772
-5.024416	widely -0.477121
-4.723386	major -0.425969
-4.355409	Dane -1.146128
-4.355409	Whitman -0.628389
-4.422356	aka -0.505150
-4.121326	Black -0.937852
-5.024416	Night -0.477121
-5.024416	Gujurat -0.301030
-4.246265	such -0.823909
-5.024416	2989 -0.301030
-3.709145	PRESIDENT -0.987411
-3.838779	Public -1.088136
-4.121326	Land -0.937852
-4.200507	grant -1.301030
-4.139809	Universities -0.732394
-4.054379	publishes -0.806180
-4.054379	Jens -1.161368
-4.159114	Hartel -0.602060
-4.159114	Lokomotive -1.342423
-4.039139	Leipzig -0.819544
-3.878288	His -0.532979
-3.225075	1 -1.159223
-4.297417	palm -1.204120
-4.297417	sugar -0.676694
-4.460144	Among -0.636822
-4.899477	great -0.397940
-5.024416	achievements -0.477121
-5.024416	life -0.477121
-3.793967	chosen -1.247155
-3.626476	Lake -0.924279
-3.983023	Placid -0.954243
-4.200507	1910 -0.569875
-3.644205	inhabitants -0.908485
-4.387594	printed -0.602060
-4.200507	Cesena -0.569875
-4.271088	third -0.801632
-4.271088	publication -0.477121
-4.325446	Found -0.903090
-3.562018	This -0.587337
-4.200507	FOUNDER -0.619789
-4.246265	Asterix -0.583577
-4.598447	Rene -0.903090
-4.501537	Goscinny -0.511883
-4.024416	doctoral -1.190332
-4.070173	advisor -0.726999
-4.039139	DOCTORALADVISOR -0.903090
-4.325446	At -0.439333
-4.054379	after -0.429348
-4.501537	Monroe -0.740363
-4.070173	rock -0.726999
-4.387594	formation -0.531479
-4.460144	Aethelwald -1.041393
-4.325446	Ealdorman -1.176091
-4.325446	Anglia -0.903090
-4.039139	ETHNICGROUPS -0.903090
-4.460144	throughout -0.636822
-4.723386	neighboring -0.544068
-4.422356	Counties -0.812913
-4.139809	all -0.537119
-4.246265	over -0.494850
-3.753349	Indonesia -0.851937
-4.422356	Southeastern -1.079181
-5.024416	| -0.477121
-4.422356	prequel -0.669007
-3.577258	uses -0.575957
-4.325446	shortcrust -0.903090
-5.024416	patry -0.477121
-4.387594	offered -0.845098
-4.460144	sports -0.778151
-3.820296	governing -1.389166
-3.785534	body -0.867762
-4.501537	SPORTSOFFERED -0.359022
-4.899477	Foundation -0.397940
-4.501537	Visvesvaraya -0.511883
-3.838779	HAS_TO_ITS_NORTHEAST -0.929419
-3.933335	northeast -0.845098
-3.785534	west -0.823909
-4.246265	own -0.460731
-4.024416	operate -0.591065
-5.024416	Tenants -0.477121
-4.039139	Ajax -0.653213
-4.501537	Youth -1.000000
-4.297417	Academy -0.676694
-4.222784	bajji -0.602060
-3.650279	surface -0.943385
-4.802567	mainly -0.367977
-4.422356	consists -1.079181
-4.054379	fish -0.806180
-4.010175	cooked -1.491362
-4.086564	hot -0.713210
-4.297417	Chicago -0.778151
-4.598447	may -0.439333
-4.054379	INFLUENCEDBY -1.000000
-4.723386	4000ft -0.425969
-4.086564	batchoy -0.660052
-3.888753	director -1.041393
-3.970058	DIRECTOR -0.812913
-4.159114	institute -0.653213
-4.355409	affiliate -1.146128
-4.179318	bhajji -0.586266
-5.024416	AIrports -0.477121
-3.970058	India -0.812913
-3.695357	French -0.863323
-4.297417	Belgium -0.778151
-4.179318	Into -1.322219
-4.246265	avocado -0.535113
-3.829439	plant -0.534160
-4.656439	Salvadoran -0.845098
-4.656439	Primera -0.845098
-4.656439	Division -0.477121
-3.723386	competed -1.778151
-4.222784	See -0.602060
-3.899477	Atat -1.602060
-3.858084	ü -1.643453
-3.858084	rk -1.185637
-3.811341	bronze -0.763428
-4.121326	İ -1.096910
-4.179318	zmir -0.636822
-3.970058	fullname -0.880814
-4.179318	TV -0.884607
-4.547295	Christian -0.954243
-4.547295	Panucci -0.477121
-4.355409	asam -0.726999
-4.422356	pedas -0.505150
-4.010175	Malay -0.723104
-4.547295	peninsula -0.477121
-4.039139	passed -1.462398
-4.010175	away -1.041393
-4.179318	graduate -0.698970
-3.716207	potato -0.778151
-4.179318	taro -0.636822
-4.501537	Ahmedabad -0.602060
-3.933335	demonym -0.788370
-3.838779	Civil -1.371068
-3.848325	Aviation -1.361728
-4.325446	governs -0.653213
-3.716207	binignit -0.749380
-4.297417	13017 -0.778151
-4.139809	birth -0.920819
-5.024416	Pete -0.477121
-4.010175	Koln -0.723104
-4.086564	creators -1.130334
-4.179318	Airman -0.508155
-4.598447	Harry -0.903090
-4.598447	Sahle -0.903090
-4.222784	typical -0.602060
-4.723386	operator -0.778151
-4.179318	Apollo -0.778151
-3.933335	12 -0.662758
-3.448459	beef -1.048512
-4.179318	tapioca -1.041393
-4.200507	noodle -1.021189
-4.222784	vermicelli -1.278754
-4.200507	broth -1.301030
-4.200507	kailan -1.301030
-4.103597	celery -0.954243
-4.200507	salted -1.301030
-3.468113	fried -1.350248
-4.200507	shallots -1.021189
-4.325446	Amatriciana -0.753328
-4.656439	Laura -0.845098
-4.656439	Boldrini -0.602060
-3.983023	ADDRESS -0.745967
-3.957469	17 -0.823909
-3.662688	1933 -0.977724
-3.702197	AFIT -1.127105
-4.387594	MS -0.602060
-3.709145	1962 -0.890856
-3.650279	Stuart -1.851258
-3.626476	Parker -0.924279
-4.139809	footballer -0.669007
-3.888753	Blackpool -0.610333
-4.899477	abreviation -0.397940
-4.598447	RB -0.903090
-4.598447	Berlin -0.522879
-4.179318	represented -0.698970
-4.139809	Schipol -0.617300
-4.501537	Springfield -0.511883
-4.222784	Manuel -1.278754
-3.848325	built -0.862472
-4.325446	Avenue -0.653213
-3.957469	Manhattan -0.767686
-4.501537	notable -0.447158
-4.271088	work -0.564271
-5.024416	Porius -0.477121
-4.802567	Romance -0.477121
-4.899477	Dark -0.602060
-4.899477	Ages -0.397940
-4.501537	533 -0.740363
-4.070173	ARCHITECTURALSTYLE -0.673416
-4.598447	Benedict -0.903090
-4.501537	Monastery -0.740363
-4.325446	service -0.579784
-4.422356	Aarus -0.669007
-3.957469	headquartered -1.255273
-3.945235	historic -1.102662
-3.802567	district -0.903090
-4.024416	Taqaddum -1.028029
-4.271088	Prokopis -0.954243
-4.460144	Pavlopoulos -0.778151
-4.547295	patron -0.698970
-4.656439	Saint -0.477121
-4.598447	PATRONSAINT -0.653213
-4.460144	Desteapta -0.778151
-4.179318	te -0.884607
-4.460144	romane -0.636822
-4.159114	! -0.417536
-4.723386	loyal -0.778151
-4.355409	Character -0.556303
-4.723386	Dancer -0.544068
-4.222784	Anders -0.511883
-4.656439	abbr -0.845098
-4.460144	# -0.778151
-3.484504	LOCATIONCITY -0.950515
-5.024416	Harrietsown -0.301030
-3.888753	legislature -0.778151
-4.200507	Established -1.301030
-3.615046	current -0.808114
-3.793967	de -1.130334
-4.656439	Boer -0.477121
-5.200507	managerof -0.301030
-4.325446	p -1.176091
-4.723386	distributor -0.778151
-3.769143	film -0.733732
-3.557054	Big -1.264818
-3.609443	Hero -1.892095
-3.562018	6 -0.761761
-4.387594	DISTRIBUTOR -0.531479
-5.024416	appears -0.477121
-4.325446	ranks -1.176091
-5.024416	Dept -0.477121
-4.271088	Shepard -0.477121
-4.387594	After -0.477121
-4.325446	graduating -0.753328
-5.200507	favourite -0.301030
-4.246265	other -0.431364
-5.200507	nations -0.301030
-5.024416	1773 -0.301030
-4.547295	cities -0.698970
-3.858084	Saranac -1.352183
-3.996387	Harrietstown -0.857332
-4.179318	Turkey -0.778151
-4.723386	held -0.544068
-3.681993	many -0.751499
-4.179318	Seminary -1.322219
-3.702197	Gettysburg -0.897016
-3.878288	organization -0.963788
-3.888753	elevated -0.778151
-4.039139	Burbank -1.176091
-5.024416	inCOUNTRY -0.477121
-4.297417	Kolin -0.544068
-4.325446	Admira -1.176091
-4.325446	Wacker -0.903090
-4.501537	Modling -0.447158
-4.460144	140000 -0.636822
-4.547295	42 -0.698970
-4.387594	high -0.433656
-4.355409	between -0.628389
-4.355409	Democratic -0.875061
-3.858084	Party -0.587337
-4.179318	become -1.322219
-4.054379	among -0.889302
-4.297417	Haider -0.929419
-4.297417	al -0.676694
-4.297417	Abadi -0.676694
-4.501537	prime -1.000000
-4.460144	minister -0.477121
-4.387594	Haputale -0.698970
-4.159114	Sri -0.716003
-5.200507	JayawRdenepura -0.301030
-5.024416	Kotte -0.477121
-4.598447	Ski -0.653213
-4.598447	Lankan -0.653213
-4.297417	rupee -0.676694
-3.644205	Vincent -1.273001
-3.650279	High -1.851258
-4.598447	Georgian -0.439333
-3.349249	owned -1.681241
-4.656439	Pavloopoulos -0.477121
-3.456214	AFC -1.168792
-4.039139	N -1.462398
-3.983023	V -0.954243
-5.200507	goes -0.301030
-4.656439	1818 -0.301030
-4.179318	Knight -0.636822
-4.899477	winning -0.301030
-5.200507	Halimah -0.301030
-5.200507	leds -0.301030
-4.139809	ayam -1.079181
-4.802567	penet -0.477121
-4.656439	version -0.845098
-4.070173	Alma -1.146128
-4.103597	Mater -0.763428
-4.598447	Karnataka -0.439333
-4.054379	Italy -0.740363
-4.010175	kway -1.204120
-3.933335	teow -0.913814
-4.501537	tender -1.000000
-4.501537	loin -1.000000
-4.387594	gula -0.845098
-5.200507	melaka -0.301030
-4.422356	sliced -0.812913
-4.387594	dried -1.113943
-4.222784	beans -1.000000
-4.387594	dark -1.113943
-4.387594	soy -0.845098
-4.387594	lengkuas -1.113943
-4.297417	oyster -1.204120
-4.387594	soya -1.113943
-4.325446	chilli -0.653213
-4.271088	sesame -1.230449
-4.325446	tourist -1.176091
-4.325446	destination -0.653213
-4.422356	Charles -1.079181
-4.422356	Michel -0.669007
-4.355409	Philippe -0.875061
-4.899477	simply -0.602060
-4.325446	post -0.903090
-3.820296	address -0.793946
-4.010175	Bangalore -0.676694
-5.200507	56009 -0.301030
-3.848325	Their -0.594761
-4.179318	Riverside -1.322219
-4.121326	Art -0.829304
-4.598447	Musuem -0.380211
-5.200507	Asilmar -0.301030
-5.200507	Beach -0.301030
-3.888753	significant -0.954243
-3.921754	buildings -0.798355
-4.086564	Texans -0.970037
-3.615046	total -0.865301
-4.598447	14 -0.380211
-4.325446	sq -0.903090
-4.070173	km -0.985277
-3.899477	BLT -0.726999
-4.723386	lulia -0.425969
-4.899477	140 -0.397940
-3.945235	kilometres -1.102662
-4.054379	Agremiacao -1.447158
-3.921754	Sportiva -1.124939
-4.024416	Arapiraquense -0.533603
-4.024416	containing -0.365147
-4.547295	Chicharron -0.477121
-4.200507	Columbia -0.681241
-5.024416	82 -0.477121
-4.355409	300 -0.628389
-4.070173	North -0.589826
-4.899477	Lasalle -0.301030
-4.297417	ethic -0.929419
-4.024416	ice -1.190332
-5.200507	Institude -0.301030
-4.598447	NUMBEROFUNDERGRADUATESTUDENTS -0.439333
-4.802567	undergraduate -0.698970
-3.702197	Hotel -0.857332
-3.811341	Bella -1.397940
-3.829439	Sky -0.879178
-4.802567	European -0.477121
-5.200507	Associatian -0.301030
-4.802567	headquarter -0.367977
-5.200507	creating -0.301030
-5.200507	office -0.301030
-4.899477	Bethesda -0.602060
-5.024416	sandwhich -0.477121
-5.024416	Frenchman -0.301030
-4.460144	titled -0.544068
-5.024416	Limerick -0.301030
-4.501537	GOVERNMENTTYPE -0.359022
-3.811341	originated -0.954243
-3.858084	noodles -1.185637
-3.970058	organs -1.531479
-3.970058	shrimp -1.243038
-5.024416	ni -0.301030
-4.547295	turn -0.477121
-4.222784	about -0.552842
-4.656439	Brazilian -0.301030
-4.159114	IATA -0.653213
-4.086564	IATA_LOCATION_IDENTIFIER -0.860338
-4.246265	Above -1.255273
-4.271088	Veil -0.564271
-4.598447	Created -0.903090
-4.139809	Arion -0.617300
-4.598447	Luciano -0.653213
-4.656439	Spalletti -0.397940
-4.460144	Greenlandic -0.636822
-4.598447	Part -0.903090
-4.200507	Menasha -0.528274
-4.899477	Transportation -0.602060
-4.460144	West -0.778151
-4.010175	Football -0.845098
-3.983023	League -0.516630
-4.222784	Addiction -0.511883
-5.024416	Available -0.477121
-3.933335	Verona -0.698970
-4.899477	three -0.301030
-3.888753	17th -0.954243
-4.010175	more -0.845098
-5.200507	60 -0.301030
-4.899477	years -0.397940
-3.983023	later -0.496007
-3.777261	September -1.056905
-4.024416	Susana -1.477121
-4.024416	Diaz -0.711204
-5.024416	Andalusia -0.477121
-5.200507	Agrremiacao -0.301030
-3.572118	City -0.845098
-3.933335	soldiers -1.113943
-4.010175	Turk -1.204120
-3.970058	Sehitleri -1.243038
-3.970058	Aniti -0.756962
-3.785534	Atlantic -1.138303
-3.888753	bakewell -1.322219
-3.983023	tart -0.623249
-4.159114	fruit -0.716003
-4.355409	preserves -0.500602
-3.957469	variant -0.823909
-4.355409	originating -0.628389
-3.983023	ADMINISTRATIVECOUNTY -0.745967
-3.910473	Dales -0.681241
-4.547295	designers -0.564271
-4.246265	Gary -0.977724
-4.246265	Cohn -0.535113
-4.355409	Rican -0.556303
-4.179318	lemon -0.586266
-4.899477	Catania -0.397940
-4.899477	Balgalore -0.602060
-4.355409	Alcobendas -0.628389
-3.868069	Fylde -0.653213
-4.246265	Stockport -0.977724
-4.246265	Azerbaijan -0.583577
-4.899477	Richland -0.602060
-5.024416	focuses -0.477121
-4.200507	Chesterfield -0.865301
-4.422356	Melaka -1.079181
-3.899477	local -0.578148
-4.387594	covers -0.531479
-5.024416	686 -0.477121
-4.723386	land -0.425969
-4.460144	preparation -0.778151
-3.480348	but -0.742076
-4.899477	india -0.301030
-4.179318	Narendra -1.322219
-4.159114	Modi -0.795880
-4.501537	Ampara -0.511883
-5.200507	Distract -0.301030
-4.598447	Paran -0.903090
-4.297417	Operated -1.204120
-4.387594	ELEVATIONABOVETHESEALEVEL -0.845098
-4.723386	Footballer -0.544068
-4.656439	Blackburn -0.845098
-4.222784	Rovers -0.845098
-4.723386	Paul -0.544068
-4.460144	Sousa -0.425969
-4.139809	while -0.392110
-4.387594	managing -0.531479
-4.899477	places -0.301030
-5.200507	Rebulic -0.301030
-4.179318	Ireland -0.636822
-4.547295	arrabbiata -0.698970
-4.656439	Library -0.845098
-4.656439	Congress -0.845098
-4.656439	Classification -0.602060
-5.024416	PR6031 -0.477121
-5.024416	0867 -0.477121
-4.086564	Tudor -1.130334
-4.422356	Jacobean -0.812913
-4.297417	Director -0.602060
-4.387594	Prefecture -0.531479
-4.139809	1980 -0.669007
-4.179318	Australian -0.698970
-4.010175	sponge -1.204120
-4.159114	Icolo -1.342423
-4.103597	Bengo -0.845098
-5.200507	Petro -0.301030
-3.921754	Lumezzane -0.639849
-4.598447	hosts -0.522879
-4.103597	Populous -0.646264
-4.179318	height -1.041393
-5.200507	GROUP -0.301030
-5.200507	Was -0.301030
-4.325446	White -0.653213
-4.422356	nice -0.812913
-4.387594	confectionery -0.698970
-4.121326	Enrique -1.380211
-3.753349	Pena -1.286307
-4.121326	Nieto -0.937852
-5.024416	Is -0.301030
-4.802567	standard -0.698970
-4.246265	Tony -0.977724
-4.325446	Tan -0.653213
-4.355409	Bury -0.875061
-4.121326	Adare -0.937852
-4.598447	STATUS -0.522879
-4.121326	NEARESTCITY -0.684247
-4.159114	nearest -1.060698
-5.200507	Population -0.301030
-3.957469	density -0.892095
-4.355409	Auburn -0.500602
-4.501537	Alabama -0.511883
-5.024416	368 -0.477121
-4.802567	65 -0.477121
-3.970058	per -1.243038
-4.222784	kilometre -1.278754
-4.355409	authors -0.875061
-4.246265	person -0.535113
-4.297417	BBC -0.497325
-4.501537	Baron -0.511883
-4.899477	Birkenhead -0.397940
-4.802567	we -0.367977
-4.139809	find -0.574031
-4.598447	during -0.522879
-3.983023	Regional -0.954243
-4.422356	Wilson -1.079181
-4.802567	bi -0.698970
-4.802567	monthly -0.367977
-4.159114	Pakistan -0.559308
-4.159114	comics -0.903090
-4.297417	Alfred -0.929419
-4.325446	Giles -0.522879
-4.656439	PLACEOFDEATH -0.845098
-4.460144	21 -0.778151
-4.159114	1998 -0.795880
-4.297417	serve -0.676694
-4.355409	aboard -0.628389
-4.899477	Amatricana -0.397940
-5.200507	Sauce -0.301030
-4.656439	Matteo -0.845098
-4.656439	Renzi -0.397940
-4.039139	German -0.819544
-4.501537	Fortress -1.000000
-4.547295	Grey -0.477121
-4.086564	Jones -0.544068
-4.460144	should -0.636822
-4.656439	SERVINGTEMPERATURE -0.397940
-4.656439	EISSN -0.845098
-4.656439	EISSN_NUMBER -0.602060
-4.547295	I -0.698970
-5.200507	am -0.301030
-5.200507	interested -0.301030
-4.899477	Machinery -0.397940
-4.460144	make -0.544068
-3.996387	2 -0.790050
-4.139809	Conference -0.574031
-4.501537	Francis -0.740363
-4.547295	Slay -0.564271
-4.325446	mayor -0.753328
-5.024416	Prior -0.477121
-5.200507	retiral -0.301030
-4.039139	edited -1.014240
-3.921754	alma -1.124939
-4.422356	Arrow -0.410174
-5.024416	429 -0.477121
-4.422356	9 -0.505150
-5.200507	tejano -0.301030
-4.355409	associated -1.146128
-4.656439	Dublin -0.477121
-4.297417	Both -0.425969
-3.644205	within -0.908485
-4.598447	penned -0.653213
-4.723386	Criona -0.778151
-4.723386	Ni -0.778151
-4.723386	Dhalaigh -0.544068
-4.460144	Lord -1.041393
-4.271088	Mayor -0.698970
-4.802567	Owen -0.698970
-4.656439	Glendower -0.477121
-4.547295	novels -0.414973
-5.024416	stared -0.477121
-4.899477	monarchy -0.602060
-3.996387	To -0.942008
-4.039139	cost -0.753328
-4.723386	120m -0.778151
-4.086564	dollars -0.778151
-3.983023	1ST_RUNWAY_SURFACETYPE -0.698970
-4.355409	Cleveland -0.500602
-4.103597	count -1.113943
-5.200507	Lahor -0.301030
-4.387594	PLACEOFBIRTH -0.602060
-4.297417	Torino -0.929419
-3.970058	Ayam -0.880814
-4.054379	Penyet -0.686381
-4.899477	island -0.397940
-5.200507	banyumasan -0.301030
-4.387594	either -0.367977
-4.802567	Centre -0.367977
-4.355409	starring -0.726999
-5.200507	binigit -0.301030
-4.598447	Phillippines -0.522879
-4.271088	cookie -0.564271
-4.355409	That -0.388180
-5.200507	missiles -0.301030
-3.933335	BATTLES -0.788370
-5.024416	Disney -0.477121
-5.024416	Studios -0.301030
-5.200507	Motion -0.301030
-5.200507	Picture -0.301030
-3.899477	Arem -0.817660
-4.179318	you -0.586266
-5.200507	need -0.301030
-4.802567	meal -0.367977
-4.899477	Cook -0.602060
-4.246265	Illinois -0.583577
-5.200507	Shitake -0.301030
-4.899477	mushrooms -0.397940
-3.688624	banana -0.954243
-4.802567	prominent -0.367977
-4.460144	Dave -1.041393
-4.460144	Challinor -0.636822
-4.387594	Tranmere -1.113943
-5.200507	20843 -0.301030
-4.460144	110 -1.041393
-4.103597	million -0.954243
-4.547295	build -0.477121
-4.271088	Almonds -0.698970
-4.355409	studied -0.875061
-5.024416	Hopsital -0.477121
-4.547295	Colmore -0.954243
-4.501537	Row -0.602060
-4.656439	FOUNDEDBY -0.397940
-4.802567	produces -0.477121
-4.547295	radio -0.564271
-3.921754	RIVER -0.750123
-4.139809	river -0.617300
-4.460144	inauguration -0.778151
-4.501537	INAUGURATIONDATE -0.511883
-4.656439	09 -0.602060
-3.793967	27 -1.041393
-5.200507	Buitenvelderbaan -0.301030
-3.933335	Memorial -0.576253
-4.547295	locally -0.698970
-4.460144	head -0.636822
-4.802567	Emperor -0.698970
-4.656439	baths -0.845098
-4.024416	Asilomar -1.190332
-4.460144	Blvd -1.041393
-4.387594	Pacific -1.113943
-4.387594	Grove -0.845098
-4.387594	here -0.433656
-4.246265	Cyril -1.255273
-4.246265	Ramaphosa -0.720159
-4.460144	Clancy -0.778151
-4.656439	designer -0.602060
-4.723386	oregano -0.301030
-5.024416	Azal -0.477121
-5.024416	Pfk -0.301030
-4.387594	HAS_TO_ITS_SOUTHEAST -0.698970
-5.200507	invaded -0.301030
-4.723386	planes -0.352183
-4.802567	1533 -0.301030
-4.899477	Secret -0.397940
-4.899477	Scriptures -0.397940
-5.200507	demographic -0.301030
-5.024416	caucasian -0.301030
-4.723386	Monarchy -0.778151
-4.598447	Jerry -0.903090
-4.598447	Ordway -0.380211
-5.200507	Ajobkanci -0.301030
-4.802567	Champions -0.367977
-3.745662	same -0.784682
-4.899477	107 -0.602060
-4.899477	43 -0.602060
-4.598447	academically -0.903090
-4.460144	focused -1.041393
-4.723386	La -0.544068
-4.802567	Salle -0.367977
-4.501537	lira -0.447158
-5.200507	consumed -0.301030
-3.996387	Alpena -0.687975
-4.355409	Country -0.419129
-3.933335	Michigan -0.788370
-3.793967	Flemish -1.041393
-5.200507	downed -0.301030
-5.024416	claimed -0.477121
-5.200507	Maadrid -0.301030
-4.501537	holds -0.740363
-4.598447	fans -0.653213
-3.785534	campus -0.823909
-4.501537	Karnatka -0.447158
-3.793967	pudding -0.713210
-5.200507	consisting -0.301030
-4.598447	largely -0.522879
-4.325446	pastry -0.477121
-5.200507	Fried -0.301030
-5.200507	Chicken -0.301030
-5.024416	mashed -0.301030
-5.200507	already -0.301030
-4.121326	performed -1.380211
-4.547295	01 -0.477121
-4.723386	Influenced -0.778151
-4.899477	Gus -0.602060
-4.899477	Poyet -0.397940
-4.899477	desert -0.301030
-4.723386	placed -0.778151
-4.200507	MUNICIPALITY -0.759668
-4.139809	categorized -1.361728
-5.200507	abbreivated -0.301030
-4.355409	although -0.419129
-4.598447	lettuce -0.335792
-4.222784	1ST_RUNWAY_LENGTHFEET -0.662758
-5.024416	453 -0.301030
-4.802567	martyrs -0.698970
-4.422356	Aids -0.812913
-3.957469	Journal -0.558155
-4.723386	Joe -0.778151
-4.723386	Biden -0.425969
-4.598447	4th -0.903090
-4.723386	provides -0.544068
-5.024416	educational -0.477121
-4.460144	services -0.425969
-4.802567	Noord -0.698970
-3.996387	Alexis -1.505150
-3.996387	Tsipras -0.734686
-4.598447	Peoples -0.903090
-4.222784	having -0.447158
-4.387594	1800 -0.531479
-4.297417	Beef -0.778151
-4.246265	Kway -0.977724
-4.422356	Teow -0.505150
-4.103597	severed -1.113943
-4.121326	Wasp -0.632023
-4.501537	Vitesse -1.000000
-4.460144	Arnhem -0.636822
-4.501537	Mechanics -0.511883
-4.598447	capacity -0.653213
-3.996387	2015 -0.612784
-4.246265	form -0.460731
-4.501537	abbrv -1.000000
-3.848325	Acta -0.920819
-4.103597	Palaeontol -1.113943
-4.103597	Pol -0.845098
-3.858084	II -0.724276
-4.246265	sometimes -0.460731
-3.910473	mater -0.865301
-5.200507	visit -0.301030
-5.200507	DeadMan -0.301030
-4.547295	Plack -0.564271
-4.501537	near -0.397940
-5.200507	teat -0.301030
-5.200507	asked -0.301030
-4.355409	him -0.455932
-4.656439	join -0.477121
-4.598447	100 -0.439333
-5.024416	305 -0.477121
-4.802567	shiitake -0.367977
-4.139809	KEYPERSON -0.617300
-5.024416	Dc -0.301030
-4.010175	Copenhagen -0.723104
-5.200507	abreviated -0.301030
-4.547295	works -0.477121
-4.355409	Essex -0.875061
-5.024416	13 -0.477121
-5.024416	123 -0.477121
-4.547295	clubs -0.414973
-4.656439	working -0.477121
-4.422356	Feb -0.574031
-4.086564	P -1.130334
-4.086564	Prabhukumar -0.860338
-5.200507	Chciago -0.301030
-3.921754	tenants -0.855317
-3.910473	100305 -1.301030
-3.838779	before -0.624724
-5.200507	Short -0.301030
-5.200507	Then -0.301030
-4.723386	ASD -0.778151
-4.723386	Licita -0.778151
-4.723386	1931 -0.425969
-4.460144	Castrovillari -1.041393
-4.899477	Augustus -0.397940
-4.899477	Pugin -0.301030
-4.501537	SC -0.740363
-4.547295	Wiener -0.954243
-4.547295	Neustadt -0.477121
-4.899477	coming -0.602060
-5.024416	Heinlen -0.301030
-4.656439	Maple -0.845098
-4.271088	Albuquerque -0.623249
-4.121326	Mexico -0.632023
-4.899477	1142 -0.397940
-4.656439	stone -0.397940
-4.325446	Cornish -0.579784
-4.355409	Cornwall -0.628389
-5.024416	airing -0.301030
-4.598447	real -0.903090
-4.387594	doctorate -1.113943
-4.054379	then -0.466656
-4.246265	founder -0.720159
-4.656439	SAGE -0.602060
-4.899477	publications -0.301030
-4.802567	Administrative -0.698970
-4.387594	Society -0.698970
-4.723386	Quarterly -0.425969
-4.422356	21st -0.574031
-4.297417	AIRCRAFTHELICOPTER -0.544068
-5.024416	Helicopter -0.477121
-5.024416	30 -0.301030
-5.024416	2007 -0.477121
-3.996387	Stern -0.734686
-5.200507	Kark -0.301030
-5.200507	Worlfman -0.301030
-5.024416	Alcharya -0.477121
-5.024416	Karanataka -0.301030
-5.200507	Telanga -0.301030
-4.271088	Lanka -0.698970
-3.910473	GOVERNINGBODY -0.759668
-4.325446	via -1.176091
-4.656439	CHAIRMANTITLE -0.477121
-4.297417	chairman -0.778151
-4.271088	é -0.623249
-4.802567	rie -0.698970
-4.271088	Malays -0.801632
-4.246265	Sumatra -0.823909
-4.656439	Peninsula -0.477121
-4.297417	3RD_RUNWAY_LENGTHFEET -0.778151
-4.598447	Alianza -0.903090
-4.899477	does -0.397940
-5.200507	Operation -0.301030
-5.024416	Enduring -0.477121
-5.024416	Freedom -0.301030
-4.139809	SK -0.920819
-4.547295	Vorwarts -0.954243
-4.246265	Steyr -0.720159
-4.723386	Ethiopian -0.425969
-5.024416	Birr -0.477121
-4.355409	BIRTHNAME -0.500602
-4.547295	Legion -0.954243
-4.547295	Merit -0.564271
-3.609443	negre -0.939519
-4.501537	Tomatoes -0.740363
-4.039139	tomatoes -1.014240
-3.996387	included -0.612784
-5.024416	Crew -0.301030
-5.200507	Coden -0.301030
-5.200507	Biniignit -0.301030
-4.723386	neighbours -0.352183
-5.200507	fortress -0.301030
-5.024416	Ice -0.301030
-4.355409	Antioquia -0.628389
-5.200507	DeMarco -0.301030
-3.945235	With -0.592917
-5.024416	earned -0.477121
-4.899477	english -0.301030
-3.933335	HOMETOWN -0.630705
-4.179318	Council -0.586266
-4.501537	hometown -0.602060
-5.200507	locationa -0.301030
-4.899477	comprise -0.602060
-4.070173	Irish -0.477121
-4.656439	Here -0.301030
-5.200507	crowd -0.301030
-4.598447	District -0.522879
-4.656439	occupation -0.845098
-4.899477	She -0.301030
-4.222784	Chinatown -0.845098
-3.829439	San -0.879178
-4.899477	Fransisco -0.301030
-3.820296	university -0.755875
-4.387594	conference -0.698970
-4.121326	Elliot -0.588272
-3.858084	MIT -1.070038
-4.723386	Rapid -0.778151
-4.598447	Wien -0.439333
-4.422356	natives -0.574031
-4.656439	kingdom -0.477121
-4.501537	firm -0.511883
-4.656439	Previous -0.602060
-4.723386	games -0.544068
-4.387594	Carles -0.602060
-5.200507	Puigdement -0.301030
-5.024416	fantasy -0.301030
-4.802567	54 -0.477121
-4.103597	awards -0.646264
-4.024416	AWARDS -0.765917
-4.723386	Batak -0.778151
-4.598447	Acehnese -0.439333
-4.460144	headed -1.041393
-4.387594	almaMater -0.698970
-4.297417	AIP -0.676694
-5.024416	advances -0.301030
-4.460144	Adv -0.544068
-4.723386	reside -0.425969
-4.501537	surfaced -0.602060
-5.200507	Palm -0.301030
-4.121326	army -0.937852
-4.010175	Columbian -0.845098
-4.598447	belly -0.522879
-4.200507	meat -0.759668
-5.200507	chicharr -0.301030
-4.598447	ó -0.903090
-4.598447	egg -0.522879
-4.723386	plantain -0.544068
-4.802567	patacones -0.698970
-4.656439	chorizo -0.845098
-4.723386	arepa -0.778151
-4.547295	hogao -0.564271
-4.802567	morcilla -0.477121
-4.387594	Ballistic -0.531479
-4.460144	fictional -0.778151
-4.656439	superhero -0.397940
-4.598447	Doug -0.903090
-4.547295	Moench -0.414973
-4.802567	Potter -0.698970
-4.723386	Designed -0.778151
-4.802567	comprised -0.698970
-4.422356	Duursema -0.505150
-5.200507	Igoro -0.301030
-4.547295	ft -0.477121
-5.200507	546m -0.301030
-4.222784	Estadio -0.845098
-4.501537	Minicipal -1.000000
-5.024416	bed -0.477121
-4.422356	BEDCOUNT -0.669007
-4.355409	Javenese -0.726999
-5.200507	ethinic -0.301030
-4.547295	these -0.367977
-4.070173	Turkmenistan -0.875061
-4.460144	airlines -0.425969
-5.024416	39 -0.301030
-5.200507	fossils -0.301030
-4.802567	FOSSIL -0.367977
-4.501537	council -0.602060
-4.024416	Labour -0.916454
-4.547295	Jepson -0.954243
-4.422356	Way -0.574031
-4.039139	euro -0.753328
-4.200507	Albany -0.681241
-5.200507	Dougherty -0.301030
-4.139809	Georgia -0.669007
-4.598447	Alexandria -0.522879
-5.024416	81 -0.477121
-4.723386	Williamson -0.778151
-4.899477	champion -0.397940
-4.802567	Washtenaw -0.698970
-4.103597	leaf -0.646264
-4.899477	Almond -0.602060
-5.200507	Amserdam -0.301030
-4.899477	18L -0.602060
-4.899477	36R -0.397940
-4.899477	Aalsmeerbaan -0.397940
-4.899477	fresh -0.397940
-3.970058	warm -0.966142
-3.957469	cold -0.977724
-4.598447	Aktieselkab -0.903090
-4.547295	1411 -0.477121
-4.222784	4000 -0.477121
-4.656439	purple -0.845098
-4.656439	finch -0.477121
-4.355409	bird -0.419129
-4.723386	Hampshire -0.425969
-4.547295	distributed -0.564271
-5.024416	movie -0.477121
-3.996387	almond -0.942008
-4.355409	Zamboangans -0.556303
-4.723386	nation -0.352183
-4.723386	McManus -0.352183
-5.200507	Ajaz -0.301030
-4.802567	amateurs -0.301030
-3.820296	category -1.681241
-3.983023	CATEGORY -1.066947
-4.010175	610 -1.041393
-4.899477	Andalusian -0.602060
-5.200507	deserts -0.301030
-4.899477	tv -0.397940
-5.200507	screens -0.301030
-4.656439	873 -0.602060
-4.547295	Ximo -0.954243
-4.547295	Puig -0.414973
-4.802567	Ground -0.367977
-4.222784	owns -0.552842
-5.200507	Groups -0.301030
-4.501537	Additionally -1.000000
-4.656439	appearance -0.477121
-4.246265	guanciale -0.823909
-4.460144	Irlam -1.041393
-4.460144	Town -0.544068
-4.899477	legislative -0.397940
-5.024416	branch -0.301030
-4.271088	Another -0.443697
-4.039139	Greek -0.698970
-4.387594	Wiley -0.845098
-4.355409	Blackwell -0.500602
-4.656439	heads -0.477121
-4.899477	Mr -0.397940
-4.460144	Paulo -0.778151
-5.024416	Souza -0.301030
-4.501537	Maccabi -1.000000
-4.501537	Tel -1.000000
-4.501537	Aviv -0.740363
-5.200507	Portuguese -0.301030
-4.547295	addition -0.414973
-4.501537	4349 -0.602060
-4.325446	Malatu -1.176091
-4.246265	Teshome -0.720159
-5.024416	Hailemariam -0.477121
-4.899477	Desalegn -0.602060
-5.024416	discipine -0.477121
-5.200507	Bianco -0.301030
-5.024416	isLEADERNAME -0.301030
-5.200507	altogether -0.301030
-5.200507	rated -0.301030
-4.387594	Drogheda -1.113943
-4.355409	KV -1.146128
-4.355409	Mechelen -0.556303
-5.200507	Separd -0.301030
-4.802567	5 -0.301030
-4.325446	Tamil -0.579784
-4.325446	appeared -1.176091
-5.200507	edits -0.301030
-4.723386	Sumitra -0.778151
-4.656439	Mahajan -0.397940
-4.598447	7 -0.522879
-5.200507	Bucharist -0.301030
-4.899477	Romanian -0.301030
-4.271088	De -0.954243
-4.460144	ș -1.041393
-4.460144	teapt -1.041393
-4.460144	ă -1.041393
-4.460144	rom -1.041393
-4.460144	â -1.041393
-4.460144	ne -0.636822
-5.200507	Apostle -0.301030
-5.024416	Andrew -0.301030
-4.121326	Balder -0.464887
-4.802567	enrolled -0.477121
-5.024416	Ben -0.477121
-5.200507	Benjamin -0.301030
-5.024416	Urich -0.301030
-4.460144	Reference -0.778151
-4.387594	Number -0.531479
-5.200507	FAS -0.301030
-4.355409	El -0.875061
-4.387594	Salvador -0.602060
-4.501537	Bandeja -0.602060
-5.200507	pasta -0.301030
-5.024416	component -0.301030
-4.899477	predecessor -0.397940
-4.054379	25 -1.000000
-4.422356	Genoa -0.669007
-4.899477	Luanda -0.397940
-4.656439	province -0.342423
-5.200507	measuring -0.301030
-5.200507	dubbed -0.301030
-4.387594	Anaheim -0.531479
-4.598447	CA -0.522879
-4.802567	POPULATIONTOTAL -0.477121
-5.200507	inhabiting -0.301030
-4.139809	penyet -0.537119
-5.024416	present -0.301030
-4.723386	Asians -0.352183
-4.501537	beds -0.740363
-4.422356	Baltic -1.079181
-5.200507	assisted -0.301030
-4.547295	paleontology -0.564271
-4.501537	Eredivisie -0.511883
-4.723386	POPULATIONDENSITY -0.778151
-4.325446	James -0.653213
-5.200507	Pallotta -0.301030
-4.355409	too -0.628389
-4.899477	spending -0.301030
-4.325446	52 -0.903090
-4.723386	250 -0.544068
-4.547295	Delaware -0.698970
-4.802567	Ave -0.698970
-4.460144	Buffalo -0.544068
-4.723386	Y -0.778151
-4.899477	Postmodern -0.602060
-5.200507	wa -0.301030
-4.200507	Alderney -0.681241
-4.355409	Poales -0.628389
-4.325446	Richard -0.903090
-5.024416	Berry -0.301030
-4.656439	Noodles -0.602060
-4.547295	bakso -0.477121
-5.024416	Ribbon -0.301030
-4.547295	hardback -0.414973
-4.325446	ACM -0.753328
-4.422356	Trans -1.079181
-4.422356	Inf -1.079181
-4.422356	Syst -0.669007
-4.501537	Discipline -1.000000
-4.460144	Computer -1.041393
-4.222784	codes -0.511883
-4.355409	respectively -1.146128
-5.200507	supporting -0.301030
-5.200507	dept -0.301030
-4.460144	rutaceae -1.041393
-4.222784	seat -0.740363
-4.802567	Tarrant -0.698970
-5.024416	Fort -0.477121
-5.024416	Worth -0.301030
-4.656439	As -0.477121
-4.802567	capable -0.698970
-4.547295	helicopter -0.477121
-5.200507	Airpori -0.301030
-4.899477	Mulatu -0.602060
-4.723386	Fulton -0.778151
-4.723386	Alpharetta -0.425969
-4.723386	saint -0.352183
-5.200507	AREAOFLAND -0.301030
-4.271088	8g -0.801632
-4.387594	protein -0.845098
-4.325446	fat -0.753328
-4.802567	18g -0.477121
-4.387594	carbohydrates -0.845098
-4.899477	Max -0.602060
-4.899477	Huiberts -0.397940
-5.024416	carrier -0.301030
-4.387594	Kansas -0.845098
-5.024416	metropolitan -0.477121
-4.297417	Spain -0.602060
-4.723386	amateur -0.544068
-5.024416	Current -0.477121
-5.200507	486 -0.301030
-4.723386	kilometers -0.352183
-4.460144	1873 -0.425969
-4.325446	Republic -0.653213
-3.983023	Java -0.869232
-4.246265	rector -0.977724
-4.222784	RECTOR -0.845098
-4.802567	2900 -0.367977
-3.888753	m -0.954243
-4.271088	Philippines -0.801632
-4.387594	Colombia -0.698970
-5.200507	1977 -0.301030
-4.802567	Code -0.477121
-4.899477	information -0.397940
-5.200507	derives -0.301030
-4.387594	measures -0.531479
-5.024416	439 -0.301030
-4.723386	310 -0.352183
-5.024416	Zamboangan -0.477121
-4.501537	Dan -1.000000
-4.501537	Mishkin -0.602060
-4.656439	astronaut -0.397940
-4.598447	joining -0.903090
-4.501537	Arena -0.602060
-4.271088	regions -0.564271
-5.200507	follows -0.301030
-4.460144	Topklasse -0.636822
-4.899477	Count -0.397940
-4.802567	Techology -0.698970
-4.802567	O -0.477121
-4.121326	motto -0.684247
-4.121326	MOTTO -0.937852
-4.547295	concerned -0.954243
-4.501537	Pure -1.000000
-4.501537	Mathematics -0.740363
-4.387594	Abh -1.113943
-4.387594	Semin -1.113943
-4.387594	Univ -1.113943
-4.387594	Hambg -0.477121
-4.422356	Michele -0.812913
-4.460144	Marcolini -0.425969
-4.387594	Paracuellos -1.113943
-4.387594	Jarama -0.845098
-5.200507	Sergi -0.301030
-4.656439	Mattarella -0.602060
-4.271088	Afonso -1.230449
-5.200507	Pound -0.301030
-5.200507	Sterling -0.301030
-4.598447	voiced -0.653213
-4.297417	VOICE -0.497325
-4.297417	Afonsa -1.204120
-5.200507	Dos -0.301030
-4.297417	Brazil -0.676694
-4.024416	Sebastian -1.477121
-3.996387	los -1.505150
-3.996387	Reyes -0.687975
-4.297417	Hopkins -1.204120
-4.086564	Press -0.660052
-4.271088	Rolando -0.954243
-4.297417	Maran -0.676694
-5.200507	twentieth -0.301030
-4.501537	River -0.511883
-4.802567	runs -0.301030
-4.899477	through -0.397940
-4.656439	Runcorn -0.845098
-4.656439	Halton -0.477121
-4.460144	Californian -0.636822
-3.933335	SIGNIFICANTBUILDING -1.000000
-5.200507	1938 -0.301030
-4.460144	championship -0.425969
-5.024416	obviously -0.477121
-5.024416	215 -0.301030
-4.422356	These -0.574031
-4.501537	books -0.447158
-4.387594	following -0.477121
-4.656439	Violet -0.845098
-4.656439	Keystone -0.477121
-4.899477	Johns -0.602060
-4.200507	AREACODE -1.021189
-4.802567	Senator -0.477121
-4.325446	SENATORS -0.653213
-5.200507	Californians -0.301030
-5.024416	competition -0.477121
-5.200507	Schiphols -0.301030
-4.656439	5th -0.845098
-4.723386	5TH_RUNWAY_NUMBER -0.778151
-4.121326	specific -1.380211
-4.547295	Technological -0.477121
-3.899477	OCCUPATION -0.817660
-4.723386	when -0.352183
-5.200507	registered -0.301030
-5.024416	virus -0.301030
-5.024416	Retroviruses -0.477121
-5.200507	serie -0.301030
-4.070173	regional -0.875061
-4.656439	Aug -0.845098
-4.460144	another -0.425969
-4.355409	Faroese -0.726999
-5.200507	Marcoli -0.301030
-4.460144	Atalanta -0.778151
-4.271088	erected -0.954243
-5.024416	Allam -0.477121
-4.802567	chicharon -0.698970
-5.200507	friend -0.301030
-4.501537	Liga -0.740363
-5.024416	Corvallis -0.301030
-4.899477	Benton -0.602060
-4.460144	Oregon -0.636822
-4.355409	districts -0.556303
-5.200507	term -0.301030
-4.547295	Reith -0.477121
-4.460144	alter -1.041393
-4.460144	ego -0.778151
-5.200507	524 -0.301030
-4.598447	Shepherd -0.439333
-4.422356	publish -0.669007
-4.802567	Elizabeth -0.367977
-4.387594	shown -0.845098
-4.802567	Community -0.367977
-5.024416	host -0.477121
-4.246265	Iraq -0.583577
-4.501537	Amazing -0.740363
-4.387594	Man -0.531479
-4.547295	Arlington -0.477121
-4.802567	22nd -0.698970
-4.656439	1988 -0.477121
-4.723386	whole -0.778151
-4.802567	You -0.698970
-4.179318	Contributing -1.322219
-4.179318	Property -0.544068
-4.656439	Unione -0.845098
-4.656439	Triestina -0.845098
-4.656439	2012 -0.602060
-4.656439	studies -0.477121
-4.355409	Airlines -0.455932
-4.598447	800 -0.653213
-4.598447	gemstone -0.335792
-4.656439	GEMSTONE -0.477121
-5.024416	Ren -0.477121
-5.024416	Lewis -0.477121
-5.024416	Cottingham -0.301030
-4.723386	Aguila -0.778151
-4.899477	Brussels -0.397940
-4.121326	hub -0.588272
-4.355409	HUBAIRPORT -0.628389
-4.139809	Associazione -0.920819
-4.460144	ChievoVerona -0.636822
-4.802567	Springer -0.698970
-4.802567	Media -0.477121
-4.723386	potatotes -0.544068
-4.460144	CHAIRMAN -0.544068
-4.598447	Steve -0.903090
-5.200507	Bakewll -0.301030
-4.222784	ö -0.845098
-4.422356	ger -0.505150
-4.547295	Varese -0.954243
-5.200507	4349m -0.301030
-5.024416	610m -0.477121
-4.899477	Doshi -0.301030
-5.200507	Coper -0.301030
-4.355409	Powys -0.419129
-5.200507	speech -0.301030
-4.802567	around -0.301030
-4.723386	onion -0.544068
-4.899477	BIRD -0.301030
-4.501537	start -0.740363
-4.802567	Ethnically -0.698970
-4.656439	Germanic -0.477121
-4.501537	Colwyn -1.000000
-4.460144	Bay -0.636822
-5.024416	c -0.301030
-3.945235	Dean -0.834633
-4.325446	Tim -1.176091
-4.325446	Brooke -0.753328
-4.039139	Taylor -0.613959
-3.945235	falls -1.267172
-4.656439	actually -0.342423
-4.723386	Marriott -0.544068
-4.501537	Mexican -0.511883
-4.899477	Ring -0.602060
-4.899477	Fire -0.602060
-5.024416	Annie -0.477121
-5.024416	Dunne -0.301030
-4.501537	Danish -0.447158
-4.460144	frangipane -0.636822
-5.024416	products -0.477121
-5.024416	BCC -0.301030
-4.355409	second -0.875061
-4.325446	Filipinos -0.753328
-5.024416	347 -0.477121
-4.899477	SqKm -0.602060
-4.598447	arros -0.653213
-5.200507	Originally -0.301030
-4.723386	CAMPUS -0.425969
-4.501537	art -0.740363
-4.501537	museum -0.602060
-5.200507	Sunmitra -0.301030
-5.200507	Mumbia -0.301030
-4.899477	adviser -0.397940
-5.024416	Plantain -0.477121
-4.802567	parented -0.698970
-4.899477	speaks -0.397940
-4.547295	Arabic -0.564271
-4.070173	Grand -1.431364
-4.325446	Martyr -1.176091
-4.501537	House -1.000000
-4.547295	Representatives -0.698970
-4.656439	Stadio -0.845098
-4.656439	Marc -0.477121
-4.723386	Antonio -0.544068
-4.723386	Bentegodi -0.544068
-5.200507	Euro -0.301030
-4.547295	primary -0.954243
-4.501537	Leader -0.447158
-4.723386	complete -0.544068
-4.723386	Team -0.544068
-4.802567	academy -0.477121
-5.200507	remembered -0.301030
-4.723386	took -0.544068
-4.802567	Mendriso -0.477121
-4.387594	Ammann -0.698970
-4.723386	Rosales -0.352183
-5.200507	britain -0.301030
-5.024416	lpena -0.477121
-4.899477	210m -0.397940
-5.024416	Within -0.301030
-4.802567	show -0.301030
-5.200507	list -0.301030
-5.024416	needed -0.477121
-4.802567	Marriot -0.477121
-4.325446	Jack -1.176091
-4.325446	Kirby -0.522879
-4.159114	Su -1.342423
-4.159114	rez -0.903090
-5.200507	locaed -0.301030
-4.246265	500 -0.494850
-4.899477	lie -0.602060
-4.501537	Moro -0.511883
-4.656439	ethnicity -0.477121
-5.200507	Sadly -0.301030
-4.355409	different -0.726999
-4.297417	Vietnamese -0.676694
-5.024416	Redefine -0.477121
-5.024416	Properties -0.301030
-5.200507	Assad -0.301030
-4.547295	Airbase -0.564271
-4.598447	plane -0.380211
-4.598447	Lockheed -0.439333
-4.460144	130 -0.425969
-4.325446	Rutland -1.176091
-4.325446	Arms -0.903090
-4.070173	Bakewell -0.628389
-4.656439	Derbyshire -0.477121
-5.024416	Previously -0.301030
-4.598447	BC -0.522879
-4.899477	youth -0.397940
-5.200507	33OCLC_NUMBER -0.301030
-4.387594	Shumai -0.477121
-5.200507	madrid -0.301030
-5.024416	Tor -0.477121
-5.024416	Books -0.477121
-5.200507	administrated -0.301030
-4.723386	ADMINISTRATIVEARRONDISSEMENT -0.544068
-4.899477	Purple -0.602060
-4.899477	Finch -0.397940
-5.200507	adult -0.301030
-5.200507	navy -0.301030
-5.200507	no -0.301030
-5.200507	wonder -0.301030
-5.024416	chose -0.301030
-4.387594	condiments -0.433656
-5.200507	Anthonio -0.301030
-5.024416	573 -0.477121
-4.899477	Olympia -0.397940
-4.802567	Institue -0.698970
-5.200507	Physics -0.301030
-4.899477	Japanese -0.301030
-5.200507	is911 -0.301030
-4.271088	considered -0.477121
-4.547295	living -0.698970
-5.024416	therefore -0.301030
-4.460144	eat -0.477121
-4.547295	MAYOR -0.698970
-5.200507	Provincial -0.301030
-4.501537	matches -0.602060
-5.200507	Shuvulan -0.301030
-4.899477	Claude -0.602060
-4.802567	Bartolone -0.477121
-4.086564	Margrethe -1.130334
-5.024416	Monuments -0.301030
-5.024416	Originating -0.477121
-4.200507	freshly -1.301030
-4.054379	baked -0.889302
-5.024416	Round -0.477121
-5.024416	Rock -0.301030
-4.547295	famous -0.564271
-5.200507	numerous -0.301030
-4.501537	SIGNIFICANTPROJECT -0.602060
-5.200507	Tukyk -0.301030
-5.024416	COURSE -0.301030
-5.024416	responsibility -0.477121
-4.387594	America -0.531479
-5.200507	politicians -0.301030
-5.200507	turkish -0.301030
-5.200507	Grants -0.301030
-4.899477	Ethopia -0.301030
-4.802567	Book -0.477121
-4.656439	Publications -0.477121
-4.387594	Brasilia -0.531479
-4.422356	Region -0.574031
-4.103597	Africans -0.845098
-5.200507	varient -0.301030
-4.387594	Metap -1.113943
-4.355409	Nikos -0.875061
-4.387594	Voutsis -1.113943
-4.802567	During -0.477121
-4.547295	career -0.414973
-4.387594	Queen -0.531479
-5.024416	7th -0.301030
-4.598447	1971 -0.903090
-4.387594	Construction -0.845098
-4.547295	finished -0.954243
-4.723386	AE -0.778151
-4.387594	Dimitra -1.113943
-4.325446	Efxeinoupolis -0.522879
-4.325446	Hungar -0.579784
-4.723386	rard -0.778151
-4.297417	Angola -0.602060
-5.024416	Willian -0.477121
-4.139809	28th -0.669007
-5.200507	cones -0.301030
-4.547295	Valencian -0.698970
-5.024416	Services -0.477121
-5.024416	Brasil -0.301030
-4.802567	Bundesliga -0.477121
-5.024416	Mariott -0.477121
-5.200507	Corporation -0.301030
-5.200507	Sardar -0.301030
-5.200507	Ayaz -0.301030
-5.200507	Sadiqis -0.301030
-4.656439	Sportpark -0.602060
-4.656439	Toekomst -0.477121
-4.723386	Brooklyn -0.352183
-4.802567	Jon -0.698970
-4.422356	ScD -0.574031
-4.501537	senator -0.447158
-4.802567	populated -0.698970
-4.355409	People -0.455932
-5.024416	AEthelwald -0.477121
-5.024416	Tom -0.477121
-5.024416	Lyle -0.301030
-4.656439	colours -0.477121
-4.723386	Archarya -0.778151
-4.802567	blue -0.698970
-4.656439	orange -0.477121
-4.802567	dumplings -0.477121
-4.723386	tofu -0.425969
-4.723386	RELIGION -0.544068
-4.723386	55 -0.544068
-5.200507	744 -0.301030
-4.899477	facility -0.397940
-4.598447	2744 -0.380211
-5.024416	manor -0.301030
-4.355409	King -0.875061
-4.899477	David -0.602060
-4.899477	Cameron -0.301030
-4.899477	field -0.397940
-5.200507	Looking -0.301030
-5.200507	things -0.301030
-5.200507	orthoretrovirinae -0.301030
-5.200507	pr -0.301030
-4.460144	belonging -1.041393
-5.200507	Shortly -0.301030
-5.024416	graduation -0.301030
-4.460144	parts -0.636822
-4.297417	competes -1.204120
-4.723386	dead -0.544068
-4.387594	Of -0.477121
-4.899477	governor -0.301030
-4.802567	inside -0.367977
-4.200507	architects -0.681241
-4.121326	Pain -0.748188
-4.297417	George -0.778151
-5.200507	neighbor -0.301030
-5.024416	Dupage -0.477121
-5.200507	Bo -0.301030
-4.899477	Bibbo -0.301030
-5.200507	Bibbowski -0.301030
-5.200507	nearby -0.301030
-4.802567	counties -0.477121
-5.200507	ENgland -0.301030
-5.200507	dictating -0.301030
-4.899477	219 -0.397940
-4.387594	Indians -0.531479
-4.355409	200 -0.628389
-4.422356	84 -0.669007
-4.802567	3684 -0.367977
-4.656439	Affiliated -0.845098
-4.802567	Ithaca -0.367977
-5.200507	univesity -0.301030
-4.179318	meringue -0.698970
-4.297417	Christmas -0.929419
-4.598447	features -0.380211
-4.899477	2777 -0.301030
-5.024416	Schuphol -0.301030
-4.802567	04 -0.698970
-4.723386	22 -0.352183
-5.024416	Oostbaan -0.301030
-5.024416	Graeme -0.477121
-5.024416	Garden -0.301030
-4.802567	Col -0.698970
-4.547295	Addis -0.564271
-4.547295	Ababa -0.564271
-4.723386	spanish -0.301030
-4.501537	originate -0.602060
-5.200507	Abbreviation -0.301030
-4.501537	impact -1.000000
-4.501537	factor -0.740363
-4.501537	IMPACTFACTOR -0.602060
-4.899477	AREATOTAL -0.602060
-4.656439	pecorino -0.602060
-4.656439	romano -0.477121
-4.723386	Koreans -0.425969
-4.547295	Other -0.414973
-5.200507	fired -0.301030
-4.598447	Cowpher -0.903090
-5.200507	Warren -0.301030
-5.024416	When -0.301030
-5.200507	technology -0.301030
-4.802567	Senate -0.477121
-4.598447	BS -0.439333
-4.802567	crewman -0.367977
-4.422356	Antwerp -0.574031
-4.723386	Adirondack -0.778151
-4.547295	behalf -0.954243
-4.547295	Study -0.954243
-4.222784	30843 -1.278754
-4.656439	so -0.397940
-4.460144	strong -0.636822
-4.460144	connections -0.636822
-4.723386	Dutch -0.425969
-4.598447	Premier -0.903090
-4.899477	Brandon -0.602060
-4.899477	Sanderson -0.397940
-4.246265	LANGUAGES -0.643453
-4.547295	still -0.564271
-4.802567	not -0.301030
-4.723386	heard -0.301030
-5.200507	did -0.301030
-4.723386	Appletone -0.778151
-4.802567	Severed -0.698970
-5.200507	IdentifierICAO_LOCATION_IDENTIFIER -0.301030
-4.246265	employees -0.643453
-4.899477	example -0.602060
-4.656439	ARCHITECTURE -0.602060
-5.024416	overseen -0.477121
-5.024416	AlP -0.477121
-5.024416	Advances -0.477121
-4.501537	crewed -0.602060
-4.723386	Boeing -0.544068
-5.200507	C17 -0.301030
-4.723386	Globemaster -0.352183
-4.656439	Roberts -0.397940
-4.139809	Chief -1.079181
-4.422356	Justice -0.505150
-5.200507	bbreviation -0.301030
-5.200507	Associated -0.301030
-4.723386	Catalonia -0.425969
-5.024416	Shamal -0.477121
-5.024416	Sports -0.477121
-5.024416	Barcelona -0.301030
-5.200507	Binigit -0.301030
-4.598447	Architect -0.653213
-5.200507	jet -0.301030
-5.024416	controlled -0.301030
-5.200507	operations -0.301030
-5.200507	subsequently -0.301030
-5.200507	Addicition -0.301030
-4.387594	postal -0.845098
-4.547295	990 -0.477121
-5.200507	Adam -0.301030
-4.387594	flight -0.698970
-4.460144	if -0.352183
-4.271088	bionico -0.516630
-4.899477	wizard -0.602060
-5.200507	mars -0.301030
-5.200507	mostly -0.301030
-4.802567	TS -0.698970
-5.200507	1033 -0.301030
-4.598447	Poaceae -0.522879
-4.547295	compressed -0.698970
-4.387594	minced -0.845098
-4.086564	cuisine -0.615424
-5.200507	Mathematica -0.301030
-5.200507	Hungaria -0.301030
-5.200507	Hunger -0.301030
-5.024416	ethnically -0.301030
-4.598447	Klaus -0.522879
-4.723386	Johannis -0.544068
-4.723386	Boris -0.778151
-4.723386	Test -0.778151
-4.547295	Pilot -0.477121
-5.200507	Tristrup -0.301030
-4.501537	hotel -0.511883
-4.121326	June -0.684247
-5.200507	3992 -0.301030
-5.200507	88m -0.301030
-5.200507	Accadmia -0.301030
-4.103597	di -0.602060
-4.460144	Architettura -0.477121
-4.802567	Mendrisio -0.477121
-4.547295	soup -0.367977
-4.297417	Bari -1.204120
-4.297417	1908 -0.676694
-4.656439	Ashgabat -0.477121
-4.422356	NJ -0.505150
-5.200507	10R -0.301030
-5.200507	38L -0.301030
-5.200507	Medicine -0.301030
-5.024416	202 -0.477121
-4.802567	outlook -0.698970
-4.723386	ranking -0.425969
-4.656439	OUTLOOKRANKING -0.477121
-5.200507	tarts -0.301030
-5.024416	variety -0.477121
-4.899477	counts -0.397940
-5.200507	Patrrick -0.301030
-5.200507	McLoughlin -0.301030
-5.200507	Youths -0.301030
-4.723386	various -0.425969
-4.802567	Serving -0.698970
-5.024416	06 -0.477121
-5.024416	24 -0.301030
-5.024416	Kaagbaan -0.301030
-5.024416	infantry -0.301030
-5.024416	CD -0.477121
-5.024416	aircaft -0.301030
-5.200507	Novel -0.301030
-4.598447	past -0.653213
-5.024416	Wiconsin -0.301030
-4.802567	Samuel -0.698970
-4.802567	Curtis -0.698970
-4.802567	Graduate -0.477121
-5.024416	bhaji -0.301030
-4.802567	Ajo -0.698970
-4.723386	Blanco -0.352183
-4.656439	specifically -0.301030
-4.547295	Jusuf -0.698970
-4.460144	since -0.636822
-4.460144	offers -0.544068
-4.547295	obtained -0.564271
-5.024416	SIMILARDISH -0.477121
-4.355409	van -0.875061
-4.387594	den -1.113943
-4.325446	Brom -0.522879
-5.024416	Qiu -0.301030
-5.200507	Xialong -0.301030
-4.598447	Airports -0.653213
-5.200507	Netherlands -0.301030
-5.024416	RSC -0.477121
-4.547295	1ST_RUNWAY_NUMBER -0.477121
-5.200507	AEthwald -0.301030
-4.723386	follow -0.425969
-4.598447	Anbar -0.653213
-4.598447	Mobility -0.903090
-4.656439	Works -0.477121
-5.200507	incorporates -0.301030
-5.200507	Ipena -0.301030
-5.200507	IPN -0.301030
-4.422356	international -0.669007
-4.271088	jurisdiction -0.564271
-4.802567	1FC -0.477121
-5.024416	media -0.477121
-5.200507	them -0.301030
-4.899477	CF -0.397940
-4.598447	below -0.903090
-5.200507	929 -0.301030
-4.723386	operators -0.544068
-4.598447	982 -0.380211
-4.656439	big -0.845098
-5.200507	identifiers -0.301030
-5.200507	isIATA_LOCATION_IDENTIFIER -0.301030
-4.899477	laurales -0.397940
-4.802567	Lemon -0.477121
-4.899477	citrus -0.397940
-5.200507	copies -0.301030
-5.200507	Fences -0.301030
-5.200507	agra -0.301030
-4.899477	airports -0.301030
-5.024416	indian -0.301030
-4.656439	Basko -0.477121
-5.200507	Carrrol -0.301030
-4.297417	Kingdom -0.676694
-4.899477	representing -0.397940
-5.200507	Who -0.301030
-5.024416	management -0.301030
-5.200507	outer -0.301030
-5.200507	Atlanta -0.301030
-5.200507	YOUTHCLUB -0.301030
-5.024416	PR6031O867 -0.477121
-4.899477	Tomato -0.397940
-5.200507	Margethe -0.301030
-5.024416	Considered -0.477121
-4.899477	2702 -0.301030
-5.200507	speaker -0.301030
-5.200507	Putin -0.301030
-4.070173	Accademia -0.726999
-5.024416	Silvano -0.477121
-5.024416	Aureoles -0.477121
-5.024416	Conejo -0.477121
-4.899477	Led -0.602060
-5.200507	Fenvas -0.301030
-5.200507	1027 -0.301030
-5.024416	4100 -0.301030
-5.200507	lemper -0.301030
-4.387594	Astronaut -0.845098
-4.422356	Office -1.079181
-4.355409	SERVED_AS_CHIEF_OF_THE_ASTRONAUT_OFFICE_IN -0.556303
-4.899477	411 -0.397940
-5.200507	Batogor -0.301030
-4.802567	Hays -0.698970
-4.899477	Marcos -0.397940
-4.355409	1820 -0.726999
-4.297417	size -0.929419
-5.200507	Studies -0.301030
-5.024416	philippines -0.477121
-5.200507	numberOCLC_NUMBER -0.301030
-5.024416	144 -0.477121
-4.899477	way -0.301030
-4.547295	Shinzo -0.954243
-4.547295	Abe -0.564271
-5.024416	product -0.301030
-4.802567	Shirley -0.477121
-4.899477	Catalonian -0.397940
-5.200507	win -0.301030
-5.024416	Vegetables -0.477121
-5.024416	Bajji -0.301030
-5.200507	padeh -0.301030
-5.024416	19 -0.477121
-5.024416	238 -0.477121
-4.899477	280m -0.397940
-4.422356	l -1.079181
-4.501537	original -0.602060
-5.024416	however -0.301030
-5.200507	Commelinds -0.301030
-4.802567	Infraero -0.477121
-4.899477	dictates -0.602060
-5.200507	Desserts -0.301030
-5.024416	Served -0.301030
-4.899477	Where -0.397940
-4.656439	ATA -0.602060
-5.200507	Northbrook -0.301030
-4.547295	voice -0.698970
-4.802567	Erie -0.698970
-5.200507	TechnIcal -0.301030
-4.460144	Kempe -1.041393
-4.460144	Gowda -0.477121
-5.200507	locates -0.301030
-5.200507	Posgraduayed -0.301030
-5.024416	Strawberries -0.477121
-4.802567	barny -0.698970
-4.656439	PROTEIN -0.845098
-4.802567	FAT -0.698970
-4.723386	grams -0.778151
-4.598447	carbs -0.653213
-4.802567	142 -0.698970
-4.802567	Nakadori -0.367977
-4.598447	3746 -0.903090
-4.547295	66 -0.698970
-5.200507	om -0.301030
-5.024416	involving -0.477121
-4.899477	fossil -0.397940
-5.024416	Ethiopa -0.477121
-5.200507	Scneider -0.301030
-4.899477	Eehoorn -0.301030
-5.200507	Miler -0.301030
-4.723386	Aplena -0.778151
-5.200507	Former -0.301030
-4.460144	Adisham -0.636822
-4.656439	Haputhale -0.845098
-5.024416	crafts -0.301030
-5.024416	McDonnell -0.301030
-5.200507	douglas -0.301030
-4.723386	Eagle -0.425969
-5.200507	Gujura -0.301030
-5.200507	shortbread -0.301030
-4.501537	Some -0.447158
-4.598447	facts -0.653213
-5.200507	utilizes -0.301030
-4.656439	Nasa -0.397940
-5.024416	Chicharr -0.477121
-5.200507	predominately -0.301030
-5.024416	Commelinid -0.301030
-5.024416	republic -0.301030
-4.899477	port -0.301030
-5.200507	authorities -0.301030
-5.024416	jersey -0.301030
-5.200507	ha -0.301030
-4.598447	Clayton -0.522879
-4.598447	Winnebago -0.903090
-5.200507	stint -0.301030
-4.899477	161 -0.602060
-5.200507	Sq -0.301030
-5.200507	Km -0.301030
-4.723386	retirement -0.425969
-4.899477	prepared -0.301030
-4.899477	new -0.301030
-4.899477	position -0.397940
-5.200507	broadcasts -0.301030
-4.802567	authority -0.477121
-4.802567	NY -0.367977
-4.899477	ia -0.602060
-4.325446	Galileo -1.176091
-4.325446	Affair -0.653213
-4.899477	Anandiben -0.602060
-4.899477	Patel -0.301030
-5.200507	mainland -0.301030
-5.200507	Cream -0.301030
-5.200507	Widoto -0.301030
-5.200507	Dishes -0.301030
-5.200507	bagator -0.301030
-5.200507	varieties -0.301030
-4.656439	siomay -0.477121
-4.325446	shumai -0.439333
-5.200507	idenitifier -0.301030
-5.024416	3500m -0.301030
-4.723386	Monocacy -0.778151
-4.598447	Battlefield -0.653213
-4.460144	Carrie -1.041393
-4.460144	Lam -0.544068
-5.200507	computer -0.301030
-5.200507	science -0.301030
-5.024416	opened -0.477121
-5.200507	9th -0.301030
-5.200507	september -0.301030
-5.024416	Fuad -0.301030
-5.200507	Madum -0.301030
-4.802567	residence -0.367977
-4.723386	attending -0.425969
-4.547295	Dale -0.414973
-4.598447	Asam -0.522879
-4.723386	Pedas -0.544068
-5.024416	Len -0.477121
-5.024416	Wein -0.301030
-5.200507	Belgiun -0.301030
-5.200507	oft -0.301030
-4.802567	Phillipe -0.477121
-5.200507	Aidsham -0.301030
-4.899477	All -0.397940
-4.899477	Education -0.397940
-5.200507	educated -0.301030
-4.547295	texas -0.954243
-4.355409	itself -0.556303
-5.200507	1635 -0.301030
-5.200507	Cannon -0.301030
-5.200507	Law -0.301030
-5.200507	Outlook -0.301030
-5.200507	Ranking -0.301030
-5.024416	walked -0.477121
-5.200507	piloted -0.301030
-5.200507	pounds -0.301030
-4.723386	sterling -0.425969
-4.723386	hall -0.301030
-5.200507	aspects -0.301030
-5.200507	culture -0.301030
-4.899477	Britain -0.397940
-5.200507	518 -0.301030
-4.802567	Linn -0.477121
-5.200507	Abiba -0.301030
-5.200507	914 -0.301030
-4.656439	exact -0.477121
-4.501537	REPRESENTATIVE -0.602060
-4.547295	representative -0.564271
-5.200507	coincidentally -0.301030
-5.200507	Jodo -0.301030
-5.200507	Salem -0.301030
-5.200507	levle -0.301030
-5.200507	Basked -0.301030
-4.501537	Alaska -0.447158
-5.200507	Six -0.301030
-5.200507	hundred -0.301030
-4.723386	attend -0.544068
-4.460144	Pa -0.544068
-5.200507	Home -0.301030
-5.200507	hard -0.301030
-5.024416	cover -0.301030
-5.200507	highly -0.301030
-4.802567	citizens -0.367977
-4.656439	Portugal -0.602060
-4.547295	pakora -0.414973
-4.802567	related -0.367977
-5.200507	youthclub -0.301030
-5.024416	Denamrk -0.301030
-4.802567	NOTABLEWORK -0.477121
-4.899477	arrondissement -0.602060
-5.024416	officially -0.301030
-5.200507	momument -0.301030
-5.200507	Airforce -0.301030
-5.024416	aircarft -0.477121
-5.200507	Akhito -0.301030
-4.802567	18C -0.698970
-4.802567	36C -0.367977
-4.899477	Zwanenburgbaan -0.397940
-5.024416	2215m -0.301030
-5.024416	911m -0.477121
-5.024416	lost -0.301030
-4.656439	NATIVENAME -0.397940
-5.024416	Kendall -0.477121
-4.802567	Fall -0.698970
-4.802567	Creek -0.698970
-5.024416	783 -0.477121
-5.200507	ataturk -0.301030
-5.200507	surprisingly -0.301030
-5.200507	alumnus -0.301030
-5.024416	HEIGHT -0.477121
-4.899477	69 -0.602060
-4.802567	days -0.477121
-4.501537	honey -0.397940
-4.899477	211m -0.397940
-4.899477	Lega -0.602060
-4.802567	Pro -0.367977
-5.200507	far -0.301030
-4.501537	Vorw -1.000000
-4.297417	ä -0.929419
-4.501537	rts -1.000000
-4.899477	Douglas -0.397940
-5.024416	F15 -0.477121
-4.723386	AZAL -0.544068
-5.024416	Pesokar -0.477121
-5.024416	Futbol -0.477121
-5.024416	Klubu -0.301030
-4.899477	194 -0.397940
-5.200507	Often -0.301030
-5.200507	javanese -0.301030
-5.200507	Baiduy -0.301030
-5.200507	landmarks -0.301030
-4.899477	LaSelle -0.397940
-4.598447	she -0.439333
-5.200507	addres -0.301030
-4.723386	Tirstrup -0.778151
-5.024416	Eisner -0.477121
-5.200507	Rasummsen -0.301030
-4.899477	onto -0.602060
-4.656439	Squeezed -0.845098
-4.802567	french -0.301030
-5.200507	indonesian -0.301030
-5.024416	Harvard -0.301030
-4.723386	publishers -0.544068
-5.200507	Walters -0.301030
-5.200507	Kluwer -0.301030
-4.656439	recipient -0.845098
-5.200507	Naran -0.301030
-5.200507	Calio -0.301030
-4.802567	Cantania -0.477121
-4.271088	Base -0.698970
-4.656439	came -0.301030
-5.200507	Scripture -0.301030
-5.200507	Pubic -0.301030
-5.200507	Square -0.301030
-5.200507	Icewas -0.301030
-5.200507	benitoite -0.301030
-4.460144	political -0.778151
-5.024416	Winkler -0.477121
-4.899477	While -0.301030
-5.200507	1219 -0.301030
-4.723386	begun -0.778151
-4.723386	poales -0.425969
-5.200507	historical -0.301030
-5.200507	Monocracy -0.301030
-5.024416	inclusdes -0.301030
-5.200507	Tramsactions -0.301030
-5.024416	Information -0.477121
-5.024416	Systems -0.477121
-5.024416	Since -0.477121
-4.802567	Germania -0.698970
-4.802567	Schoneiche -0.367977
-4.802567	whilst -0.367977
-5.200507	Wiliam -0.301030
-5.200507	prevously -0.301030
-4.723386	Celery -0.778151
-5.024416	apium -0.477121
-5.200507	AWH -0.301030
-5.200507	Engineering -0.301030
-5.200507	Collage -0.301030
-5.024416	Kuttittattoor -0.477121
-5.200507	website -0.301030
-5.024416	Lansing -0.301030
-5.200507	together -0.301030
-5.024416	Popular -0.477121
-5.200507	Aldalusian -0.301030
-4.899477	featured -0.602060
-5.200507	Elizabetth -0.301030
-5.200507	Garrett -0.301030
-4.802567	497 -0.301030
-4.656439	organized -0.845098
-4.723386	195 -0.425969
-5.200507	adisham -0.301030
-5.200507	jacabian -0.301030
-4.501537	Sept -0.740363
-5.200507	kethup -0.301030
-5.200507	constructionof -0.301030
-5.200507	28metre -0.301030
-4.899477	structure -0.301030
-5.200507	slices -0.301030
-5.024416	daughter -0.477121
-4.802567	CHILD -0.477121
-5.200507	286 -0.301030
-5.024416	SqK -0.477121
-4.656439	75 -0.602060
-4.656439	college -0.397940
-5.200507	Ganges -0.301030
-5.200507	developer -0.301030
-4.802567	DEVELOPER -0.477121
-4.802567	POSTALCODE -0.698970
-5.200507	son -0.301030
-5.200507	Maddin -0.301030
-4.598447	Puigdemont -0.522879
-4.802567	7877110 -0.477121
-4.656439	Tart -0.477121
-4.656439	Empoli -0.602060
-5.024416	passing -0.477121
-5.200507	february -0.301030
-4.723386	Favoritner -0.778151
-4.723386	Turkmenabat -0.544068
-5.200507	Billie -0.301030
-5.024416	Oddie -0.301030
-5.024416	child -0.301030
-4.355409	compliment -1.146128
-4.899477	94509 -0.602060
-4.899477	94531 -0.397940
-4.460144	JURISDICTION -0.778151
-4.656439	affilaited -0.845098
-5.200507	12m -0.301030
-5.024416	LIBRARYOFCONGRESSCLASSIFICATION -0.301030
-4.899477	Joh -0.602060
-4.656439	Madin -0.342423
-5.200507	Spallett -0.301030
-5.200507	57399346 -0.301030
-5.200507	Iohannisas -0.301030
-4.802567	dollar -0.367977
-4.723386	lemons -0.301030
-4.802567	classified -0.477121
-4.802567	sapindales -0.477121
-5.200507	Julian -0.301030
-4.547295	Morgan -0.414973
-5.200507	begre -0.301030
-4.271088	Qarabag -1.230449
-4.222784	FK -0.662758
-5.200507	honoring -0.301030
-5.200507	Arab -0.301030
-4.802567	Jayawardenepura -0.367977
-5.024416	Bodley -0.477121
-5.024416	Head -0.301030
-5.200507	kwat -0.301030
-5.200507	Tory -0.301030
-4.899477	HOK -0.602060
-4.899477	administrative -0.397940
-5.200507	orginated -0.301030
-5.200507	borders -0.301030
-5.200507	Glastonbuy -0.301030
-4.802567	mobility -0.698970
-4.656439	public -0.602060
-5.200507	Cluade -0.301030
-5.200507	AK07 -0.301030
-4.899477	Architectural -0.602060
-4.802567	Coming -0.477121
-4.802567	residents -0.367977
-5.200507	IN -0.301030
-4.723386	granted -0.544068
-4.723386	wasp -0.352183
-4.899477	rupiah -0.397940
-5.200507	whic -0.301030
-5.200507	Outagamie -0.301030
-4.656439	Ethiopia -0.477121
-5.200507	originiates -0.301030
-4.802567	Pudding -0.367977
-5.200507	Airline -0.301030
-5.200507	Turkenistan -0.301030
-5.200507	111464 -0.301030
-4.899477	Jalisco -0.397940
-5.200507	Types -0.301030
-4.656439	most -0.342423
-5.200507	Ahmet_Davutoglu -0.301030
-5.024416	inagurated -0.477121
-4.598447	SSD -0.653213
-4.723386	Potenza -0.778151
-5.200507	winners -0.301030
-5.024416	sub -0.477121
-4.899477	535 -0.397940
-4.899477	kilometer -0.397940
-5.200507	Junior -0.301030
-5.200507	Dad -0.301030
-4.802567	Ryan -0.367977
-5.200507	205 -0.301030
-4.899477	Sumatran -0.602060
-5.200507	Rodriquez -0.301030
-4.802567	pound -0.698970
-4.899477	call -0.301030
-5.200507	any -0.301030
-5.200507	temperature -0.301030
-4.802567	cauliflower -0.477121
-4.899477	only -0.301030
-4.460144	120 -1.041393
-4.899477	AUD -0.397940
-4.723386	township -0.544068
-4.598447	addiction -0.380211
-5.200507	subject -0.301030
-5.200507	657 -0.301030
-5.200507	714 -0.301030
-4.899477	896 -0.397940
-5.200507	love -0.301030
-4.598447	Condiments -0.903090
-5.200507	Peso -0.301030
-4.802567	Meringue -0.698970
-4.656439	said -0.602060
-5.024416	NWS -0.301030
-5.200507	Sehitler -0.301030
-4.802567	source -0.698970
-4.387594	Examiner -0.698970
-5.200507	enjoys -0.301030
-5.200507	concrete -0.301030
-5.200507	12th -0.301030
-5.024416	Steuben -0.477121
-5.200507	Airoprt -0.301030
-5.024416	monarch -0.301030
-4.899477	Natives -0.397940
-5.024416	755 -0.477121
-4.899477	733 -0.602060
-4.723386	Udinese -0.778151
-4.501537	put -0.740363
-4.656439	Eugene -0.845098
-4.899477	soccer -0.602060
-5.200507	Manhattern -0.301030
-4.547295	Cyrus -0.954243
-4.547295	Vance -0.954243
-4.899477	Filipino -0.397940
-5.200507	HAL -0.301030
-5.200507	light -0.301030
-5.200507	combat -0.301030
-5.200507	helicopters -0.301030
-5.200507	Beoing -0.301030
-5.200507	globemaster -0.301030
-4.899477	DeKalb -0.602060
-5.200507	going -0.301030
-4.899477	united -0.397940
-5.024416	leadership -0.477121
-5.024416	Unversity -0.477121
-5.024416	Easter -0.477121
-5.200507	production -0.301030
-5.200507	Carpri -0.301030
-5.200507	precedence -0.301030
-5.024416	770 -0.477121
-4.899477	404 -0.397940
-4.899477	678 -0.397940
-4.899477	Lemons -0.397940
-5.200507	Traditional -0.301030
-4.723386	Sergio -0.778151
-5.200507	978 -0.301030
-5.024416	4165 -0.477121
-5.200507	4253 -0.301030
-5.200507	7and -0.301030
-5.024416	Broadcasting -0.477121
-5.200507	lanka -0.301030
-4.802567	saw -0.477121
-4.899477	participating -0.397940
-5.200507	Wheeer -0.301030
-5.024416	GENRE -0.477121
-5.200507	344 -0.301030
-4.802567	Grant -0.477121
-4.723386	et -0.778151
-4.547295	bombing -0.954243
-4.802567	noted -0.367977
-5.200507	Locheed -0.301030
-4.598447	requires -0.903090
-4.899477	WI -0.397940
-4.899477	event -0.602060
-4.501537	Alcatraz -0.602060
-4.547295	Versus -0.698970
-4.547295	Evil -0.477121
-4.899477	Librarian -0.301030
-4.899477	kidney -0.397940
-4.802567	600 -0.367977
-5.200507	professional -0.301030
-5.200507	4TH_RUNWAY_SURFACETYPE -0.301030
-4.656439	thought -0.845098
-5.024416	Centrum -0.477121
-5.200507	airbas -0.301030
-5.024416	dying -0.477121
-4.802567	02 -0.367977
-5.200507	Bataks -0.301030
-5.200507	happens -0.301030
-4.656439	ADO -0.845098
-4.656439	Den -0.845098
-4.656439	Haag -0.845098
-5.200507	Accademis -0.301030
-4.598447	rivers -0.522879
-5.024416	30th -0.301030
-4.899477	Space -0.602060
-5.200507	103 -0.301030
-5.024416	italy -0.301030
-5.200507	Kimberley -0.301030
-4.598447	Dead -0.653213
-5.200507	plack -0.301030
-4.802567	houses -0.367977
-5.024416	linked -0.477121
-5.200507	bacong -0.301030
-4.802567	JP -0.698970
-5.200507	inLOCATION -0.301030
-5.024416	Conrnell -0.301030
-5.200507	Red -0.301030
-5.200507	legislates -0.301030
-5.024416	Vice -0.301030
-5.200507	Philipppines -0.301030
-4.802567	see -0.477121
-4.899477	spain -0.397940
-5.200507	Helmut -0.301030
-5.200507	Technolgoy -0.301030
-4.723386	positioned -0.778151
-4.899477	Along -0.602060
-4.501537	HQ -0.511883
-5.200507	Matgematica -0.301030
-5.200507	Hungarica -0.301030
-5.200507	providing -0.301030
-5.200507	nasa -0.301030
-5.024416	Which -0.301030
-4.598447	Summit -0.522879
-5.200507	theAIRPORT -0.301030
-4.802567	Uttar -0.698970
-4.723386	Pradesh -0.425969
-4.246265	FLOORAREA -0.720159
-4.802567	Amateurs -0.698970
-5.200507	Libraries -0.301030
-4.501537	Mar -1.000000
-4.899477	Rupiah -0.397940
-4.802567	Gram -0.698970
-5.024416	Architetturia -0.477121
-5.200507	Bakes -0.301030
-4.802567	coden -0.477121
-4.723386	coloured -0.544068
-5.200507	If -0.301030
-5.024416	ve -0.301030
-5.200507	might -0.301030
-5.200507	numbere -0.301030
-4.802567	Valencia -0.477121
-5.024416	founding -0.477121
-5.024416	FOUNDINGDATE -0.477121
-5.200507	conceived -0.301030
-5.024416	biggest -0.301030
-5.200507	entitled -0.301030
-5.200507	Guarat -0.301030
-5.200507	Amadavad -0.301030
-5.200507	Gufa -0.301030
-5.200507	lqbal -0.301030
-4.656439	Polish -0.845098
-4.723386	identified -0.778151
-5.200507	en -0.301030
-4.899477	159m -0.397940
-4.598447	foods -0.380211
-5.200507	kinds -0.301030
-5.024416	Leaders -0.477121
-4.802567	Pierce -0.477121
-5.024416	predominantly -0.301030
-5.200507	stores -0.301030
-5.024416	performs -0.477121
-5.200507	Sioay -0.301030
-5.200507	Appletonmis -0.301030
-5.200507	malaysia -0.301030
-4.899477	recipe -0.602060
-5.200507	isT -0.301030
-5.024416	682 -0.477121
-5.024416	817 -0.477121
-4.899477	214 -0.397940
-5.024416	469 -0.477121
-5.024416	972 -0.477121
-4.802567	bananas -0.477121
-5.200507	BarajasAirport -0.301030
-5.024416	fly -0.301030
-4.802567	18R -0.698970
-4.802567	36L -0.698970
-4.802567	Polderbaan -0.477121
-5.200507	497m -0.301030
-4.899477	homeground -0.397940
-5.200507	servicing -0.301030
-5.200507	PA -0.301030
-4.598447	id -0.522879
-5.024416	Order -0.477121
-5.024416	Class -0.477121
-4.899477	arr -0.602060
-4.899477	ò -0.602060
-4.598447	Viking -0.653213
-5.200507	greek -0.301030
-4.802567	Sage -0.477121
-5.200507	Tayler -0.301030
-5.200507	Roulean -0.301030
-5.200507	bears -0.301030
-4.802567	indonesia -0.477121
-5.200507	Edna -0.301030
-5.200507	Kenny -0.301030
-5.200507	calls -0.301030
-5.024416	Bethseda -0.477121
-4.899477	stanbulspor -0.602060
-4.802567	Ş -0.367977
-5.200507	Aristoteles -0.301030
-5.200507	Sandoval -0.301030
-5.200507	establishedin -0.301030
-5.200507	poultry -0.301030
-5.200507	30853 -0.301030
-4.899477	format -0.301030
-5.024416	Warton -0.477121
-5.200507	Palsa -0.301030
-4.802567	Lead -0.698970
-5.200507	Today -0.301030
-5.200507	Izmur -0.301030
-4.723386	Fran -0.778151
-4.656439	ç -0.602060
-4.723386	ois -0.778151
-5.200507	InterMilan -0.301030
-5.200507	Buitenveldertbaan -0.301030
-5.200507	fellow -0.301030
-4.598447	NUMBEROFROOMS -0.903090
-4.598447	rooms -0.522879
-5.200507	design -0.301030
-5.200507	Manhatten -0.301030
-5.024416	Patrick -0.477121
-5.024416	Mcloughlin -0.301030
-5.200507	street -0.301030
-4.899477	3528 -0.602060
-4.723386	Vigor -0.544068
-4.802567	Lamezia -0.367977
-4.656439	Oct -0.602060
-5.200507	Ataruk -0.301030
-5.200507	oprated -0.301030
-5.200507	Hal -0.301030
-5.200507	Light -0.301030
-5.200507	Combat -0.301030
-5.200507	Helicopers -0.301030
-5.200507	Paula -0.301030
-4.899477	ACF -0.397940
-5.200507	Florentina -0.301030
-5.200507	enjoy -0.301030
-4.802567	o -0.367977
-4.598447	Although -0.380211
-4.899477	help -0.397940
-4.723386	1982 -0.425969
-5.024416	Barrow -0.477121
-5.200507	Reps -0.301030
-4.899477	Rodr -0.602060
-4.899477	í -0.602060
-4.899477	guez -0.397940
-5.024416	Albilene -0.301030
-4.899477	fighters -0.301030
-5.024416	Machine -0.301030
-4.899477	editors -0.397940
-4.899477	Vicent -0.602060
-4.422356	H -0.669007
-4.802567	Crespi -0.698970
-4.802567	Bernard -0.698970
-4.802567	Gerstman -0.698970
-4.802567	Masaaki -0.698970
-4.802567	Tanaka -0.477121
-4.802567	Enge -0.698970
-4.802567	Wang -0.477121
-5.200507	3300 -0.301030
-5.200507	Diane -0.301030
-5.200507	Feinstein -0.301030
-5.200507	represents -0.301030
-5.024416	Beintoite -0.301030
-5.024416	recently -0.301030
-5.200507	hero -0.301030
-5.200507	Mathmetics -0.301030
-5.200507	Maths -0.301030
-4.723386	responsible -0.778151
-4.899477	municipal -0.397940
-5.024416	Clerk -0.301030
-5.024416	control -0.301030
-4.802567	into -0.477121
-4.802567	Commander -0.367977
-5.024416	Sour -0.477121
-4.899477	consist -0.602060
-5.200507	receiving -0.301030
-4.899477	Curitiba -0.602060
-5.200507	very -0.301030
-5.200507	Turks -0.301030
-4.802567	349 -0.477121
-4.899477	1104 -0.602060
-4.723386	Fighter -0.544068
-5.200507	legislated -0.301030
-5.200507	Anti -0.301030
-5.200507	Kuttikkattor -0.301030
-5.024416	assigned -0.301030
-5.024416	john -0.477121
-5.200507	tboh -0.301030
-4.899477	> -0.397940
-5.200507	Grantiville -0.301030
